9996 16
the 0.0074914056 0.01795074 0.022827093 -0.055766273 0.027209954 0.017297182 0.042860176 0.018793121 -0.030699583 0.10068155 -0.05728155 0.06646493 -0.05547842 -0.0014701845 -0.05449895 -0.038722377
and -0.048230153 -0.16532674 -0.027790528 0.10480132 0.026209282 -0.05754882 0.07514503 -0.035630155 0.0015522287 -0.12442739 0.031785946 0.14584303 0.0060677254 0.032469314 -0.0034381915 0.08137872
a 0.034284156 -0.047998294 0.093791604 -0.06815496 0.0087555945 0.020193908 0.00014433656 0.006923232 -0.055155244 0.09071139 -0.035621833 -0.0406068 -0.011159372 -0.073833644 0.005664078 -0.01607029
of -0.0089742765 -0.026333554 -0.014322425 -0.0068600927 0.03372483 -0.09561841 0.0026362636 0.016397974 0.017801782 0.082449205 0.066257894 -0.0869973 -0.046834763 -0.013587123 -0.018335205 -0.03395806
to 0.04088435 0.023257984 0.008176991 0.067067675 0.030412909 -0.018258553 0.03246929 0.0660029 0.021039555 -0.06501913 0.036205184 -0.07508341 -0.03871605 0.059620116 -0.050650958 0.00939209
is -0.028375363 -0.0606202 0.032461323 0.06366404 -0.007498099 -0.08995454 0.059370954 0.0039856294 -0.073534764 -0.013489281 -0.010462285 0.028244343 -0.057567865 -0.02097163 -0.028134633 -0.040551387
br -0.014115434 -0.0484909 0.05713019 -0.04123061 -0.03384081 -0.119153544 0.046428133 -0.010883894 -0.021649694 0.1370883 -0.0438239 0.0005134087 0.042665906 -0.029765919 0.00765353 -0.013675742
in 0.010540474 0.005018678 0.04641748 -0.008052771 -0.03169368 0.008035048 0.05646884 -0.034246188 -0.030967012 -0.078520745 0.05784087 -0.06680723 0.049593624 -0.06647597 -0.010121464 -0.013756635
it -0.031202417 0.054054033 0.038145345 -0.010175203 -0.02965919 -0.0463896 0.0711258 -0.019000094 -0.06660181 0.06271582 -0.032200217 -0.081759274 -0.059827417 0.038460642 0.024555815 -0.0047969883
i -0.0470954 -0.0061428915 0.010729886 -0.04785757 -0.020829836 -0.044766005 -0.02204377 0.0024728284 -0.010795895 0.0014783635 -0.050547924 0.077304445 0.04797092 -0.010699581 0.062001757 -0.042913668
this -0.027916547 0.025293764 0.09548448 0.079805225 -0.034886796 -0.033912808 -0.07570791 -0.042610444 0.0623209 0.08402189 0.023298781 -0.03231677 -0.004733976 0.02226384 -0.014321416 -0.017767865
that 0.052283153 0.08422348 0.0670916 -0.010229179 0.06260618 -0.022687525 0.02195466 0.0022448923 -0.011229774 -0.011793527 -0.0583564 -0.09163208 -0.05465609 0.0066745845 -0.05074017 -0.044519346
was 0.058493704 0.055524446 0.066574775 -0.029086791 0.019235643 0.0133686215 -0.012002216 0.021066034 0.06422889 0.012567311 0.032949857 0.019571226 -0.040948898 -0.009978903 -0.086290754 -0.039021786
as -0.032724056 0.018052606 0.057082992 -0.020669218 -0.02770951 0.041420974 -0.047760554 0.049223937 -0.044925373 0.047241796 0.013591696 0.027533898 -0.04279047 -0.08663583 0.0029015942 0.05171132
for -0.015112546 -0.07623304 0.07563902 -0.03976382 0.035129458 0.05558027 0.019707566 -0.009928938 -0.010043041 0.032320596 0.05236045 0.02584732 0.020730324 -0.008602223 0.047008246 -0.009970467
with -0.042106923 0.07408005 0.036562234 0.028270947 -0.06472995 0.03453253 0.009780024 0.05502994 -0.035819862 -0.06674331 -0.03533361 -0.016188657 0.05900766 0.0042427457 0.020694176 0.00854891
movie -0.052407835 -0.08089214 -0.018142527 -0.028011195 -0.022432724 0.0046866057 -0.03011591 -0.08873888 0.0582392 0.06780992 0.06233636 -0.052557305 -0.00097224297 0.026411496 -0.03202549 0.031070163
but 0.026382614 -0.0057721776 0.0126908785 -0.012430995 0.024180593 0.044885788 0.056623533 -0.024392141 -0.04077672 0.05352901 0.046838652 0.065507285 -0.017203238 0.05117675 0.009701724 0.02560201
film -0.031772938 -0.02728502 0.048046995 0.058622796 0.01076779 -0.02660401 0.032006275 0.019275457 -0.06410295 -0.022786664 0.017257223 -0.078027956 0.038126275 0.005446694 0.07308696 -0.0018927347
on -0.024195004 -0.017770257 0.06632797 0.01171647 -0.05501583 -0.07125002 -0.04932246 0.031186925 0.013299027 0.063409425 -0.045649745 0.05872394 0.04019631 -0.0073785074 0.0045014964 0.012859907
not 0.0065937936 -0.06384399 -0.018685397 -0.020334834 -0.047452066 -0.007876281 -0.038558137 0.06212601 0.021696858 -0.04378991 0.01476272 -0.05229718 0.052919567 -0.0062823505 -0.015587512 -0.014475639
you -0.017785486 0.051542416 -0.012156722 0.005822715 0.011425786 0.014946816 0.06110916 -0.054395992 -0.010715843 0.046836507 -0.00057249365 0.0033936747 -0.03688397 -0.05414377 0.0057421895 0.012388804
are -0.015192929 -0.059467 0.047571845 -0.012707953 -0.039601356 0.005368865 -0.04376438 0.044324916 0.010669218 -0.008305066 0.020622086 -0.022359507 -0.042903062 -0.035913512 0.030661374 0.029733913
his -0.043173272 -0.019991552 0.037187263 0.025918908 -0.0657603 -0.0047615883 0.055967007 0.026302256 -0.06466692 0.01817505 -0.001675551 -0.007982043 -0.002691512 -0.03702358 0.042886823 0.042353008
have -0.007782413 0.0019196213 0.07422336 0.013502782 0.02701509 -0.020697571 0.02522236 0.041331537 0.053916615 0.005948866 -0.00029383996 -0.022241326 0.024588086 0.018676938 0.04448114 -0.060968004
he 0.022378847 -0.028345192 -0.011119939 0.0016599824 0.030996718 -0.046600834 -0.022095133 -0.009310913 -0.0031027372 0.04821681 -0.06327678 -0.0550582 0.0019941432 0.015943909 0.008639905 0.017236289
be 0.044012606 0.059934635 -0.025201185 0.0387738 0.05721069 -0.06243881 3.110649e-05 0.039214656 0.0035772035 0.049932178 0.01883237 -0.066318974 -0.05057622 0.016645275 -0.046065677 0.029432116
one 0.012197687 0.019248102 0.01436204 0.03735352 0.042371105 -0.029913114 -0.07187343 -0.0014260384 0.06564734 0.028149363 0.02060522 0.047397293 0.0515569 0.011213343 -0.047106594 0.03484468
all -0.06742965 -0.037494045 0.041509017 0.04806879 -0.07617153 0.0055650724 0.016693033 -0.019904995 -0.015542771 0.041550506 0.03487599 0.05716013 -0.043995284 0.020140843 -0.028130777 0.021295276
at -0.040004503 -0.02287125 0.04828651 0.042950656 -0.03945082 0.013489242 -0.01980794 -0.035482086 -0.014191698 4.998031e-05 0.009857253 0.09210253 -0.0046423282 0.04423017 -0.05812421 0.027072992
by 0.017083678 0.0069198627 0.053997215 -0.036163844 -0.012333464 -0.01757388 -0.0071734176 -0.016756494 -0.031082701 0.066999316 0.01061835 0.012758009 0.0374865 -0.015458517 -0.050807633 0.013697182
an 0.026020199 0.022385944 0.030486675 -0.07696019 0.06285712 0.01689854 0.027779423 0.013685837 -0.017810198 0.060031865 -0.011744155 0.018927714 -0.025470415 0.02298286 0.07856201 -0.0064675594
they -0.008592374 -0.029836489 0.031638302 0.022774048 -0.05061375 -0.0009817147 -0.0077356375 0.037562136 -0.012323013 0.019972522 -0.007032534 -0.0027751387 -0.011385808 0.023596311 -0.01953896 -0.05543773
who -0.02496563 0.03465623 0.052161574 0.04140276 0.009016631 0.011496268 0.07704152 0.028307023 -0.08048093 -0.012044583 -0.029388832 -0.00113058 -0.017044527 -0.050724518 0.02876098 -0.014987518
so -0.010274615 0.020649707 -0.022142045 -0.026968585 -0.039711013 -0.051625144 -0.051063992 -0.03848316 0.055089444 0.02569574 -0.008881822 -0.120835945 -0.0046361126 -0.0533276 0.015098163 -0.024383819
from -0.044848677 0.008011253 0.047475547 0.0062622796 0.066378675 0.020435872 -0.027560342 -0.030723233 -0.0035870133 -0.011291734 0.04320886 -0.020981675 0.052789137 -0.03427968 0.0290491 -0.019975202
like -0.010698 0.0078689195 0.022439308 -0.039017655 -0.025934994 -0.06935297 -0.018669318 -0.01660039 -0.023106366 -0.032246076 0.017302591 -0.027651738 -0.068800636 0.0072879614 0.01393984 -0.039162673
her -0.045064326 -0.055421997 -0.005380554 -0.008484617 0.02979845 -0.06783268 0.050000314 0.045459665 -0.060157366 0.09605573 0.079981275 -0.01154536 0.06661721 -0.03739458 0.053487226 0.04215147
or -0.0275812 0.03223445 0.0451786 -0.031230718 -0.020686442 0.037035882 0.0049766116 -0.0032730063 0.029703055 0.03200443 0.043915603 -0.028856985 -0.040604685 -0.029052598 0.031548746 -0.041657973
just 0.04281006 -0.03888757 0.044441313 -0.03877205 -0.051009383 -0.07349817 -0.073524594 -0.022667687 0.011687027 -0.009379275 -0.011906676 -0.06464239 0.039869964 0.00084530335 -0.051871266 -0.05685743
about -0.02829046 0.033967577 -0.053351026 0.024896847 0.01408004 -0.04364106 -0.04491924 -0.026032513 0.0066952966 -0.034430865 0.04134305 0.039354496 -0.012845807 0.020576429 -0.008652023 0.0573437
it's 0.014444139 -0.022884948 0.12750842 -0.024773907 0.06561125 -0.012308294 -0.06573111 -0.035730567 -0.021776127 -0.020190462 -0.016612042 -0.07365434 -0.08463682 -0.01974712 -0.02430231 0.055601843
out -0.03404933 -0.054724418 -0.0028660614 -0.028463755 0.027390724 0.015234618 0.040134028 -0.003378442 -0.04803689 -0.06545412 -0.010846325 0.020309212 0.0023873416 0.027286634 -0.068649225 0.003990593
has -0.055329807 0.045937527 0.05000668 0.0607338 -0.055757605 -0.008954028 -0.012174359 -0.02193082 0.025207452 0.041633688 0.0015883481 -0.037188727 -0.011431014 -0.023212923 0.005341511 -0.034373257
if 0.07804907 0.010002357 0.05882504 0.031347148 -0.023634978 0.06868682 -0.030547813 0.047671102 -0.03183579 -0.03492475 0.037388932 0.04497108 -0.0055565005 0.055943944 -0.010742027 -0.075018175
some -0.009098173 0.016757948 0.031579964 -0.008963598 -0.033447996 0.029029297 0.019183792 0.0443769 0.023344161 0.11067027 -0.022034727 0.016026726 -0.00065179775 -0.017160485 -0.056024656 0.03215602
there 0.07785866 0.0067120623 0.04953178 0.04720627 0.0037631579 -0.014481048 -0.004361598 -0.0052661006 0.05045678 -0.033362746 -0.057438195 0.0746731 0.021428961 -0.010249396 -0.042173177 0.013963308
what -0.050297517 -0.03808146 0.01385963 0.057021357 -0.019335568 -0.044356383 -0.00072641205 -0.04581563 -0.037374053 0.007279615 0.011096358 0.019684503 -0.013332036 -0.08131588 0.018725619 0.041430887
good -0.024099618 -0.002759008 -0.011081074 0.07161525 0.03165004 0.059301116 -0.049588624 -0.031227525 0.043121412 0.017039545 -0.0490882 -0.041699603 -0.0053823213 -0.05085305 0.020062441 0.0025379471
more -0.023853952 0.021860946 -0.0045773615 -0.061018296 0.0029184658 0.049505163 0.0020938185 0.027571263 0.012330576 0.0602817 -0.043221064 -0.040824186 -0.05450646 -0.040036503 -0.016235052 0.023129437
when 0.012603979 0.020485304 -0.074175395 0.029916381 0.020909896 0.021354651 0.0074887406 0.036153145 -0.0049086483 -0.0651092 0.03130075 -0.06664584 0.020249963 -0.045569357 -0.01394565 0.04182417
very -0.0064318734 0.020461677 -0.04921419 -0.02301359 0.082001016 -0.017186543 0.08835229 -0.071327776 -0.029549295 0.050353672 0.054964367 -0.038351882 0.07879245 -0.006184262 0.07288089 -0.06524838
up 0.009953143 0.0059219454 -0.0016969943 0.023801368 -0.025674384 -0.04851909 0.002963361 0.018958064 0.0039004753 0.030520687 0.012702531 -0.019583378 -0.04559277 0.035682514 -0.010437416 -0.021560576
no 0.06212998 -0.042392425 -0.0023681412 -0.05029432 -0.051523965 -0.073490106 0.0025936565 0.04902628 0.08654074 -0.10597812 0.076259166 -0.004096176 -0.0021891196 -0.0167315 -0.024231737 -0.03493806
time -0.026791463 -0.03891867 -0.049445685 -0.00037276722 -0.027281543 0.038110495 -0.052398074 -0.02036005 0.0017838916 0.006741537 -0.0900734 0.024283037 -0.04097792 0.014461177 -0.01642481 0.035591308
she 0.02984562 0.026079727 0.038586244 0.020217046 0.018116789 -0.016620543 -0.05075705 0.018669723 -0.04072754 -0.051549893 -0.062015407 0.029275844 0.09325049 0.036750924 0.0044107344 -0.024798056
even 0.090233035 -0.04167819 0.10220775 0.0693019 0.027965115 -0.059549335 -0.043681495 0.062080245 0.015082144 -0.03862854 0.05152245 0.07274805 -0.0147620095 0.009670608 -0.021838712 -0.04533505
my 0.069903545 0.058674984 0.023761801 0.060679916 0.039446697 0.051835634 0.013247264 0.033920452 0.047364946 0.054928858 -0.006783526 0.079207025 0.054043144 -0.03931231 0.0198418 0.05229806
would 0.006837424 -0.015703853 0.015611338 -0.06811022 0.014763275 -0.06922853 -0.047515996 -0.032982014 0.10249347 -0.0037408064 0.08071531 -0.05386395 -0.00948508 0.0054592523 -0.0027075033 -0.07163069
which 0.02921562 0.020100128 -0.00942794 -0.008698775 0.020815637 -0.010153018 0.0039350432 -0.00852065 -0.006419886 -0.008389969 0.03771824 -0.041215107 0.04046846 -0.035560653 0.006608132 0.032666862
only 0.08258983 0.014631704 0.054198384 -0.04508504 -0.02658939 0.010887743 -0.0021156245 0.005966982 0.0155315865 0.077111855 0.045633238 -0.04165028 0.008940044 -0.014081396 -0.014853747 -0.022994906
story -0.0075267 -0.044649698 -0.04661801 0.015760045 0.03756324 -0.041733395 -0.021668503 0.02795522 -0.0075957244 -0.095890924 0.014244481 0.075233325 0.043395605 0.016227469 0.02619307 0.0738857
really 0.05573603 -0.00013656289 0.0074420464 -0.05230382 -0.04577542 0.03724041 -0.06607068 0.03525085 0.082718655 0.0833757 0.032754287 -0.059268076 -0.04189939 -0.0069841472 0.026500035 -0.033023123
see -0.022331834 0.090103805 0.0068509737 -0.012861516 0.08461257 0.039129592 0.01243226 -0.014820759 -0.023316285 0.019791638 -0.02247285 0.049793225 0.06080026 0.02978721 0.009130905 0.0053417766
their -0.024127286 -0.1225245 -0.010622274 0.030424077 -0.013213695 0.022540001 0.02538462 0.06351104 -0.03582076 -0.062175624 -0.037177123 0.1011054 0.038418993 -0.009840291 -0.04625995 0.0054389895
had 0.017682431 -0.039617743 -0.017706424 -0.057634145 -0.006525317 -0.031691827 0.04920709 0.012054996 0.009649541 -0.00060322107 0.021370359 0.031264912 -0.012350861 0.01422692 -0.013675446 -0.051648073
can 0.024064207 -0.021020029 0.0072857733 0.03728333 -0.0016538416 -0.013522896 0.04924986 0.021789467 -0.04449118 -0.050064452 -0.025307512 -0.00596463 -0.028402554 0.017784448 -0.037625827 -0.04226999
were 0.0019082265 -0.027759261 -0.008552466 0.030440092 -0.04685649 -0.03573714 -0.08351164 -0.028340368 -0.027792811 -0.040702153 -0.041704208 0.036095537 0.0009780407 0.039958075 -0.03965689 0.045025136
me 0.0073687686 -0.010590467 0.008756024 0.02539993 -0.007531206 -0.017618865 0.012874538 0.01951753 -0.03920506 -0.035217293 -0.028890636 -0.04375847 0.04207513 -0.023568515 0.007069 -0.054481447
well -0.096096106 0.058229737 -0.08230889 0.090829715 0.028709106 0.03897904 0.020662758 -0.06999189 -0.006193646 -0.07187636 -0.03388507 0.13322684 -0.057183046 -0.0057457695 0.030573785 0.018126553
than -0.0154957995 0.02651094 0.006901494 0.064476244 -0.0015091049 -0.022729455 -0.039015345 0.022631759 -0.008408482 -0.08908027 0.023009572 0.010025962 0.0122004375 0.0139263375 -0.01756384 -0.00035983647
we -0.02472904 0.034525577 0.034656495 0.050526384 -0.008154402 0.020975577 -0.0005685455 0.025153242 0.051059652 0.040954594 -0.0061475183 -0.024016436 0.009053419 -0.026260447 0.06170038 -0.0135308765
much -0.034460753 -0.049378626 0.03273034 0.029003607 -0.048175003 -0.032696646 0.032826826 0.056632724 0.04966204 0.027052771 0.02882327 0.08583547 0.029357234 -0.017210988 -0.055706706 -0.027707325
been 0.09388539 -0.019595584 -0.015513334 0.0020766219 -0.0051214197 -0.022060448 -0.104417674 0.0127498815 0.053905644 -0.057953734 -0.05034343 0.0035230904 0.022436392 0.06254243 0.03664215 -0.0026625784
bad 0.12188768 -0.040283263 0.08236929 -0.06609815 -0.12794374 0.025108354 -0.06705408 0.073809326 0.044112172 -0.035198886 0.053089257 0.027466992 0.045945298 0.08814252 -0.09747993 -0.04658478
get -0.013856584 -0.022604173 0.022962078 0.03993522 0.04329369 -0.030323926 0.03391717 -0.04054374 -0.039284203 -0.047669876 0.009937761 0.015026537 -0.009821322 0.002188779 -0.0084871575 -0.021082228
will -0.056301948 -0.058925 0.014638135 0.019039478 0.030333253 0.045959182 0.07854696 -0.042876408 -0.031124353 -0.062038347 -0.032883957 -0.042111993 -0.03739777 0.025833668 -0.0018304598 -0.024926549
do 0.059293248 -0.04005868 0.047561187 0.006123209 -0.030405931 -0.03879448 -0.02450173 0.0038771692 0.044574305 0.035974003 0.005170122 -0.03701464 -0.055052307 0.08338545 -0.0621596 -0.0012737693
also -0.03522128 0.014532119 -0.09326417 0.02298495 0.11149158 0.005588625 0.09993971 0.007524323 -0.06326386 0.11846124 -0.012011242 0.0069160284 -0.063882574 0.035835784 0.06866766 0.088374026
into -0.012998716 -0.096822664 -0.0003496256 0.036506604 0.017298881 -0.031804506 0.01937457 -0.030389622 -0.030265471 -0.031627636 0.0117516685 -0.011006569 -0.01196901 0.009358832 0.019435626 0.048742387
people 0.007874529 0.04869572 0.030683894 -0.050922345 0.048597008 0.014170205 0.04839105 0.008984133 -0.012062923 -0.022042973 -0.0022916887 -0.01023109 -0.00984962 0.0113717895 -0.029164424 -0.055095438
other 0.026011057 0.012612743 -0.07830418 0.07379769 0.071413934 0.001006948 -0.026940338 -0.022674533 0.03723755 -0.011059866 -0.02054941 0.02837892 -0.023342833 -0.039405048 -0.023309251 0.03411834
first -0.015909312 -0.04672502 0.041522563 -0.07860338 0.0041348394 0.051557552 -0.0030706376 -0.054942876 -0.042602245 0.0347873 0.005148739 -0.1396152 -0.04949203 -0.02220826 -0.040468164 -0.018485475
great -0.109853074 0.12247873 -0.10640632 0.07970084 0.122591116 0.06606242 -0.014675935 -0.036619145 -0.032180645 0.05100672 -0.060502652 -0.026173411 -0.07658146 -0.105520375 0.04228944 0.114967175
because -0.028147403 -0.028209683 0.033741437 0.030648626 -0.014082298 0.013065407 0.017517764 0.02994331 0.042349398 0.040986955 0.074444674 0.051414818 0.018960884 -0.05378274 -0.030714912 -0.0137421135
how -0.046399888 0.005711907 0.06474392 -0.038853146 -0.0417429 -0.09709814 0.021269849 0.002102547 -0.018741999 0.0011468511 0.002462125 0.010489355 0.01419807 0.020878406 -0.028367832 -0.0141073875
him -0.015559685 0.024845883 0.0046255253 0.03316323 -0.06455594 0.0018314761 -0.022993729 -0.008878047 0.0060840477 -0.038399745 0.035859615 -0.014644296 0.026226906 -0.0584429 0.02449576 0.013339754
most -0.02973683 0.04215626 0.061866064 0.061575316 0.032322023 0.05890121 0.05832323 -0.014678662 -0.07955254 0.04029066 -0.040220443 -0.09328035 0.0061405925 -0.05308405 0.014593357 0.045391046
don't 0.042607613 0.05728967 0.016426671 -0.06016025 0.009993486 0.04265237 0.03418745 0.058966823 0.033918276 0.032358788 0.020588093 -0.029323097 0.057683166 0.0064865192 -0.015965862 0.015364056
made 0.015175646 -0.024596518 0.041624617 -0.04745004 -0.052933816 0.032951415 0.03497717 0.021389265 -0.06066389 0.028491689 -0.05365953 0.002362582 0.07033604 0.060523544 0.060167696 0.040299665
its 0.01917592 -0.11177028 0.07597647 -0.023722129 0.046329968 -0.012465444 0.0511867 -0.08802298 0.017119618 0.052968074 0.017960524 -0.005404528 -0.04202597 -0.06984738 -0.018878488 0.06756498
then 0.087334186 0.0037338275 0.0390532 -0.030452786 -0.059857648 -0.028625533 -0.0812158 -0.011023963 0.050766204 -0.033606663 0.013051772 0.021112012 -0.029766703 0.018936083 -0.05618167 -0.05083737
way 0.031717822 0.024106337 -0.054469716 0.0043081893 0.06997344 0.031366754 0.039449926 -0.0089187 0.019166283 -0.060789492 -0.03600553 0.075982794 0.029864807 -0.017737731 -0.042546 0.024197625
make 0.026465673 -0.050550196 -0.0023940245 -0.030832728 -0.024118286 -0.024075 -0.08435282 0.03296999 0.03749856 -0.029335206 0.08713509 -0.013570741 0.04486407 0.005298276 -0.0076154936 -0.06352321
them -0.010936239 0.055245366 0.0013394053 -0.04287218 0.040097978 -0.07039639 0.030584084 0.003817153 -0.014678165 0.06422228 0.025113055 -0.07978835 0.05307071 0.04341804 -0.0036068505 0.0032380868
too -0.025865383 -0.012113632 0.016435413 0.059956856 0.02827218 -0.06371499 -0.049962316 0.042199284 0.071980044 -0.08939922 0.06724661 0.011753533 -0.0017829521 0.004689069 -0.017654214 0.055083297
could 0.068482734 -0.060695443 0.054665275 0.0437181 -0.06140701 -0.0066775098 -0.07482167 -0.027851112 0.06044466 -0.066985324 0.037827674 -0.02715683 -0.07215925 0.052075535 0.0017002928 -0.06181739
any 0.039355755 -0.008102065 0.021600612 0.010246773 -0.05666356 0.045761786 -0.028331324 -0.022494325 0.027431415 -0.043234974 0.04209796 0.056928195 0.02870569 0.009571403 -0.07594966 -0.05676375
movies -0.047478687 -0.052799076 -0.01570534 0.027249632 0.06273877 0.011872048 -0.0128155695 -0.0008462252 0.04981574 0.031015242 0.03805545 0.030616479 0.021211766 0.0037837164 0.024929363 -0.030353626
after 0.014319085 -0.007170228 0.010990169 0.017387172 0.04252173 0.04226455 -0.02436387 0.019251768 -0.02299983 0.0051282337 0.002090854 -0.023602175 0.010921194 0.006512382 -0.0381212 -0.051446877
think -0.023596896 0.028382458 -0.031096615 -0.024561096 0.043139223 0.023972826 -0.015234004 -0.06555054 0.0031268476 0.0788485 0.0007745338 -0.06952404 -0.09027058 -0.044142317 0.04775107 0.027066749
characters -0.024991939 0.044582196 0.09810568 0.010804876 -0.07009492 -0.0017335803 -0.04496502 -0.02122698 0.06130474 -0.053349234 -0.035101358 0.005030338 -0.017023485 0.05148627 -0.036413208 0.013276043
watch -0.04774091 0.011608322 0.03077641 0.069752514 0.05221486 0.015949463 -0.00791076 0.0124788415 -0.053827494 -0.099044085 0.011087658 0.023640191 0.044473227 -0.037788395 0.054442026 0.04202905
two -0.0057525123 0.0058581904 0.058686912 -0.019946994 0.0014837186 -0.023312917 -0.014582025 -0.0010726431 -0.036519416 -0.010260102 -0.0072873095 0.02756567 -0.022787835 0.031867996 0.04192855 -0.041186936
films -0.032642987 -0.02076433 -0.026248286 -0.07758414 0.009960073 -0.009571987 0.025001971 0.020468561 0.007147798 0.04503056 0.027284665 -0.072115935 0.024133036 0.03839332 -0.032635167 -0.035918675
character -0.02928491 0.023574738 0.0040375385 -0.021446804 -0.014111863 -0.034742028 -0.012699635 0.01080526 -0.0516672 -0.019738628 0.025230769 -0.0021986028 0.004105742 -0.03464547 -0.0022184304 0.0076101976
seen -0.04230351 0.061063778 0.0345533 0.054726325 0.03539489 0.065855905 -0.0045610354 -0.06008386 -0.06583664 0.050685644 -0.07782883 0.012873799 0.07893097 -0.024873963 0.0329323 0.0012762251
many -0.05873892 0.05831368 0.024194958 0.04615125 0.049587455 0.0129733505 0.044314124 0.0032603685 -0.016384315 -0.006684642 -0.05166986 -0.060292963 -0.024276953 -0.055892598 -0.002065172 -0.034747057
being -0.027941497 -0.0057830177 0.05008114 0.05751632 0.031884726 0.052213263 0.024056261 -0.007059463 0.0063532195 -0.07827937 0.044357836 0.0085715065 -0.032380674 -0.005711097 -0.0021693183 0.0040485277
life -0.025065996 0.05748443 -0.09948603 -0.025226891 0.08807012 0.0056466544 -0.0013740776 0.035859503 0.027245246 -0.0063699204 -0.056469973 0.076356255 -0.0009878525 -0.03780239 0.05672065 0.09211945
plot 0.033130214 -0.0020338404 0.011947047 -0.018366294 -0.0511301 -0.04608245 -0.032589197 0.0758892 0.023621585 -0.03971707 -0.022779636 0.030383008 0.024226323 0.01683101 -0.046961714 -0.11890815
never -0.006518286 0.029747114 -0.0195378 -0.028068392 0.027200844 -0.022348348 0.04140503 -0.058895245 -0.020603087 -0.06355742 -0.050131682 0.017928958 0.053382844 -0.024312716 -0.00084354624 0.025485111
acting 0.12994295 -0.09350087 0.06954183 0.0454951 0.015232969 -0.08441308 -0.1456753 0.024175739 0.0476449 -0.14928797 0.09016855 0.019309683 -0.069622025 0.080767035 0.018512918 -0.021817656
little -0.039482266 -0.012846588 0.020076964 -0.050092317 -0.009950443 0.03814345 0.008548002 0.014564337 0.0031032444 -0.03025897 0.02513348 -0.040381737 -0.041431773 0.027243251 -0.014650631 0.027047813
best -0.10768518 0.06485222 -0.13861723 0.09551012 0.1365933 0.12306759 -0.015297918 -0.07726091 -0.08022827 -0.13916041 -0.09530171 0.18596825 0.10480084 -0.09860031 0.042034995 0.04873035
love -0.09941771 -0.057812065 -0.06927975 0.004333808 0.11276428 -0.0046017757 0.06635434 -0.09762982 -0.10605036 -0.047448885 0.02999775 -0.040215865 0.10754711 -0.08064964 0.033072595 0.022131065
over 0.0661004 -0.021124456 -0.009325434 -0.084048524 -0.005232665 -0.07506237 0.006951628 5.8757018e-05 0.008967171 0.040196933 0.065391116 0.038459904 0.022557508 -0.025423154 -0.019888956 0.014578866
where 0.045461718 0.052510906 0.0007974218 0.028745456 -0.027658913 0.0015185492 -0.0077700717 -0.020216435 0.016114477 -0.000543468 -0.032696538 -0.010163177 -0.010731075 0.008009589 0.060951315 0.003988383
did -0.0008180499 0.03147365 0.05328458 -0.07800456 -0.04261924 -0.039956383 0.038994685 0.013492191 0.07759991 0.052576732 0.067236245 -0.022902373 0.030635936 0.024682341 0.020116223 -0.07310264
show -0.026501002 0.056437504 0.041996792 0.03023376 -0.042565584 0.021640798 0.06001218 -0.05108246 -0.0027342567 0.049273945 0.07067517 -0.078880854 -0.0009412794 -0.005577282 -0.014473555 -0.035184465
know -0.004380105 0.0030215816 -0.0014101636 -0.020613354 0.019298563 0.009132791 0.028255818 0.041182693 -0.04533331 0.023849756 -0.011058105 -0.001806934 -0.03061364 -0.049794957 0.009468625 -0.029125724
off 0.01925678 -0.009104481 0.03915632 0.004960155 -0.078231625 0.017123753 -0.0006237063 0.07803293 -0.0064409976 0.014829794 0.051365793 0.01046942 -0.012066065 0.06479261 0.0022259508 -0.09258862
ever -0.008342784 0.023688212 0.04801505 0.022984631 -0.07881436 -0.018801037 0.014906341 0.02014852 0.0014781811 -0.07650921 -0.040995363 0.054049194 0.017206987 0.008277821 -0.07912106 -0.0324306
does -0.030605987 -0.033885676 -0.008863351 0.023500161 0.02532581 0.033305388 -0.016031904 -0.0029550344 0.055011798 -0.07419343 0.011696248 -0.049779464 0.050125122 0.027501944 -0.031108128 -0.060782623
better 0.07491789 -0.042262353 0.06967339 -0.011498195 -0.03265452 -0.055524327 -0.009400832 0.099587455 0.07582999 0.011590237 0.03569257 0.063271515 0.012881039 0.005847138 -0.011850175 -0.022384686
your 0.001912201 0.048289347 0.06522464 0.0053644837 0.03984236 0.11517293 -0.012871799 0.0380673 0.01198027 0.022012377 -0.006261943 0.0037873515 -0.046409287 -0.009140242 0.034014285 -0.07049238
end 0.029682867 -0.0026822498 -0.0074354257 -0.036197864 -0.0005607866 0.002330436 0.034431804 0.009016132 -0.033627097 0.00038577817 0.03818078 -0.08519849 0.07108862 0.0027722807 -0.005310637 -0.04161014
still -0.020874428 0.033863798 -0.04778746 -0.019395038 0.103166305 -0.034192577 0.046180315 -0.049355444 -0.031601455 0.06879377 0.0071715405 -0.007101104 0.011159901 -0.09907245 0.019470593 0.04717855
man -0.024469152 0.026464159 -0.0056307786 0.019014793 0.030292593 -0.014244778 -0.035895497 -0.03165067 -0.028477093 -0.016625145 -0.035963353 0.05208242 0.058324624 0.08865608 0.06381806 0.015361893
here 0.0147212185 0.0166847 0.046004716 -0.0006102067 0.0065001063 -0.029906427 0.011361328 0.018443959 0.041688494 0.00019336445 0.10144523 0.14389884 -0.029622087 0.03605839 -0.058026113 -0.059348185
these 0.008886162 -0.019549573 -0.024695136 -0.043448113 -0.032447044 0.0025169868 0.021872474 -0.010110387 0.01830723 -0.020376563 0.020207902 -0.036694217 -0.031620804 -0.04150312 -7.063028e-05 0.0149082905
say 0.0013604653 -0.0055718753 0.047836397 0.014987466 -0.021254346 0.01081566 0.0052749207 -0.021479668 0.009223699 0.023473904 -0.0776971 -0.025708418 -0.0063699856 -0.013560733 0.0006283802 -0.0012711451
scene -0.024968755 -0.02828934 0.005997388 -0.011461633 0.033341743 0.02805519 -0.011793792 0.06489051 0.010027099 -0.063299984 0.02812259 -0.040518 -0.037682135 -0.047620226 0.015943343 0.043839075
while -0.010055106 -0.07503522 0.036280576 0.04227554 0.033602208 0.011354072 -0.039154332 0.050202515 -0.06297206 -0.012833332 0.042199407 0.057625514 -0.037214242 -0.06933353 0.02837833 0.051506035
why 0.08059416 -0.077877395 0.014850405 -0.10330917 -0.12190464 -0.00605879 -0.047247432 0.037145548 0.039595377 -0.07609871 0.060521312 0.07254962 0.07366595 0.07487798 -0.10405486 -0.07290147
scenes -0.004376305 -0.040883884 0.0009859512 0.015136345 -0.04696338 -0.00818965 -0.032109722 -0.010882617 -0.03620459 -0.062093563 -0.012866817 0.049411643 -0.057862263 0.0052646105 0.0019835501 -0.0043371334
go -0.020799024 0.036732625 0.0010469375 0.066242896 -0.06393518 0.0208187 0.0466061 0.008074988 0.021307446 -0.020620912 0.025616318 0.022016028 0.0020949324 0.024578074 -0.0020821877 0.02533757
such 0.0762552 -0.025056837 -0.019700449 0.024083579 -0.0394784 -0.03708335 -0.07551672 0.065385245 0.009251388 -0.04486668 0.038458187 0.07806731 -0.014228039 0.061990045 -0.039795607 -0.009415288
something 0.029400183 -0.004439133 0.025439473 -0.02284857 -0.0037904426 0.027228244 -0.039250836 0.04380572 -0.006290891 0.036482014 -0.02675706 0.041418772 0.038204666 0.019157667 -0.0073318603 0.028970817
through 0.016640196 -0.0066753197 -0.014108891 -0.05479545 0.02179202 -0.036402877 -0.028256072 0.016282085 -0.00391376 0.0015735159 0.069142126 -0.108491026 -0.058286894 0.028135758 -0.067119114 -0.018623108
should 0.025624122 0.014642296 0.10404008 0.06535565 -0.064988226 0.048643753 -0.016745616 -0.024873123 0.008197636 0.006562706 0.045333955 -0.055891197 -0.0051619373 0.031241316 0.048205417 -0.004512756
back 0.0039174696 0.06905052 -0.026924403 0.007467056 0.05594087 0.018918931 -0.0034338718 -0.038677752 0.025218574 0.047129508 -0.022910574 0.00035340255 0.011971852 -0.025944991 -0.0062722326 -0.0139309
i'm 0.005526761 -0.05693908 0.03173803 -0.0904682 -0.023890296 -0.03882517 0.042804863 0.006066734 -0.0072790436 0.06393722 -0.032193836 -0.06453693 0.045021567 -0.006098281 -0.09166126 -0.09900677
real 0.009677299 0.010160074 0.014731725 0.048130404 0.024294702 0.0620794 -0.02551024 -0.01703151 0.015180679 -0.076902956 0.019786617 0.10472274 0.033058934 -0.034957293 -0.0048472956 0.055794362
those -0.07068008 -0.002587367 -0.021782886 -0.029966332 0.054359455 0.034646053 0.02032663 -0.072034284 -0.02572989 -0.10163579 -0.08916721 0.04328674 -0.055085294 -0.06922559 0.02007423 0.03730141
watching -0.011493333 0.034459643 0.047357157 -9.245216e-05 0.0168941 -0.029603671 -0.008265155 -0.03632642 -0.0233405 0.033833977 -0.025803497 0.0049332916 0.039336156 0.02251772 -0.08455946 -0.049865715
now -0.00955031 0.031127244 -0.06255375 0.016879143 0.013955088 0.015687311 -0.0015224526 0.03087096 0.0075940005 -0.040247403 -0.0764121 -0.0046710633 -0.030256055 -0.057236537 0.008520487 -0.0013702583
though -0.043987688 -1.0323198e-05 -0.092326455 0.003395676 0.039194625 -0.0036120347 0.09461029 -0.035967432 -0.07076789 0.0060866945 -0.024690548 0.046755724 -0.0676811 -0.013403769 -0.0107232025 0.003597335
doesn't 0.049343154 -0.07758444 0.06396283 0.003779888 -0.09737434 -0.072843134 -0.05093867 -0.016116703 0.069472864 -0.056716688 -0.016974896 0.054298904 0.08656083 0.05933724 -0.031349093 -0.0024345666
years -0.06538108 -0.024596846 0.008062683 -0.025490558 0.037285887 -0.036790583 0.042366568 0.027257431 0.06714674 -0.013510717 -0.03126256 -0.012461007 -0.038317464 0.05156217 0.0010690077 0.04497296
old -0.037587136 -0.049797416 -0.016370341 -0.039185483 -0.00418174 0.014994727 0.044658832 -0.026434666 -0.00232953 0.03778892 -0.009983175 -0.07361743 0.009782574 -0.042521916 0.02303505 0.04631768
thing 0.046551734 -0.016147893 0.030240858 -0.08544894 -0.018027734 0.020170147 -0.06679832 -0.024904532 0.05436755 -0.03122681 0.05332567 0.091575384 0.050886013 0.061969135 -0.024255715 -0.026477445
actors 0.002298764 0.025865315 0.039407756 0.029056527 -0.020215841 -0.06021958 -0.047241334 0.026993843 0.04000191 0.054776594 -0.055405937 0.013877508 -0.011249869 0.009811192 -0.03988753 -0.011947483
work 0.013610269 0.040844843 0.060200434 0.07102066 0.042546306 0.005170683 0.0059446082 -0.06705155 -0.061020374 -0.03499747 0.028076336 0.0019539047 0.10689029 0.026755197 -0.045520958 0.008777769
10 -0.024846634 0.12196487 0.1108488 0.01326508 0.006030298 -0.076310724 -0.019356074 -0.15640143 -0.14637978 -0.020860294 -0.15090053 -0.048981674 0.05761437 0.043977965 0.044336658 0.044049088
before -0.024945263 0.015329947 0.009668252 0.060310066 0.01881192 0.023193782 -0.016457355 -0.030308837 -0.00860498 -0.009986142 -0.02194793 -0.06837383 0.037086032 0.020519346 0.01132271 -0.042837266
another 0.02109041 -0.05740782 0.054015644 0.0061039827 -0.07055558 0.022629749 -0.07386253 -0.020107985 0.013058637 -0.07366392 -0.008016296 0.04552046 0.047104184 0.014151169 -0.0100610405 0.01680786
didn't 0.03112933 -0.009008288 0.072216325 0.03447801 -0.017695205 0.04608463 -0.041291106 0.020116 0.0006394391 -0.056739893 -0.0036550225 0.060081437 0.08662989 0.05806389 -0.033606213 -0.03652668
new 0.028823318 0.05483294 -0.02053091 -0.02058529 -0.0013192883 -0.032759663 -0.028184606 -0.025073351 0.03739892 0.039116465 0.02762018 0.027476538 0.00033683254 0.058722958 -0.024557453 -0.074276246
funny -0.029438088 0.008147323 0.04190222 0.09979923 -0.020958152 -0.037223656 -0.056680307 -0.015568518 0.03126607 0.10763423 -0.060061544 0.004936194 -0.022589149 -0.046028003 0.04244935 -0.0018241788
nothing 0.14064595 -0.06643682 0.06657446 -0.06972034 -0.14843507 -0.030158991 -0.13200879 0.042949542 0.06646832 -0.10609038 0.056215413 0.081749916 0.034161128 0.08180218 -0.123991266 -0.10634795
actually 0.062878735 0.040920738 0.050628975 -0.018239241 0.07358694 0.05041226 -0.019139905 0.07591731 0.03683264 -0.1035772 0.017124899 -0.007391095 0.026355632 0.008756902 -0.041217037 -0.00709838
makes -0.019832935 0.082525626 -0.08689456 0.03205635 0.05913363 -0.03583961 0.03940987 -0.03717094 -0.04397273 0.07520866 -0.029901842 -0.05952085 -0.06618486 -0.0147580365 0.027116504 0.01365773
director 0.094716944 -0.04029194 0.013237811 -0.06782872 -0.09876648 0.004639938 -0.024754437 0.1108362 0.056556188 -0.081299886 0.017768936 -0.024980411 0.014453972 0.033487666 -0.078385785 -0.11221826
look 0.014332974 0.05921156 0.025673898 0.01062157 -0.08449178 0.023677409 -0.062073644 -0.006163197 0.020016998 0.011234155 0.026551217 -0.05164568 0.028270619 0.061023023 -0.001991773 -0.0031311233
find -0.045693263 -0.018453585 -0.034678202 -0.016346877 0.0012475521 0.031494103 0.0029712198 -0.0105207 -0.08307644 0.066500306 -0.04296688 -0.089547284 -0.056520917 -0.10269624 0.020942383 0.010315754
going 0.0148526905 0.019409679 0.013388919 0.06250747 0.024147334 0.0011881583 0.013263259 0.011495647 -0.015014843 -0.04326029 -0.014348961 0.03501802 0.0536463 -0.017958641 0.03223822 0.025899598
few 0.06252701 0.032318614 0.0027467164 -0.01067699 0.03295269 -0.001369416 -0.018505892 0.03163807 -0.005407337 -0.03132097 0.025460878 -0.031368464 0.0073949234 0.028008537 -0.047415297 -0.01890197
same 0.038775712 -0.009279532 -0.045662656 -0.011077542 0.047887404 0.08240567 -0.006041029 0.068598166 0.03647124 -0.0037879865 0.006239612 0.05841925 0.00097360415 0.005735756 -0.0044293087 -0.03642014
part 0.0029578398 -0.018370403 0.019640025 -0.036931172 0.0601549 -0.031837497 0.06384594 0.013128668 0.012961474 0.029625203 -0.0013048487 -0.05174655 0.054315057 -0.0021976084 0.0750007 0.011451256
again -0.047777347 -0.021377187 -0.002159211 -0.036618203 0.08386862 -0.018150434 -0.0405066 0.00061799603 0.044087693 0.039705697 0.020892277 -0.036923055 0.035891 -0.04066734 0.024890399 0.05039425
every -0.0047951452 0.017414 -0.012844116 0.00019213719 -0.027272535 -0.01697245 0.058243427 -0.07859677 -0.045937017 0.04183039 0.006795996 -0.014494212 -0.0035587945 -0.06476741 0.018503794 -0.02562613
lot -0.048079863 0.013108476 -0.029331576 0.069843724 0.016116383 0.103533104 0.0046022586 -0.06994838 -0.061674915 -0.024578635 -0.030293014 -0.0063691973 0.04717145 -0.036115702 0.02044336 0.009963177
cast 0.0010864721 0.013452838 -0.0347721 0.026205407 0.09227542 -0.0132379625 -0.07143845 0.056596328 -0.080044225 -0.12598807 -0.064994864 0.04551828 0.030214759 -0.003623788 -0.0034030664 0.034846216
us -0.05089684 -0.026020898 -0.026850663 -0.03563865 -0.012493554 0.020577839 -0.05090462 -0.017414005 0.044731606 0.08959968 0.041112207 0.0618007 0.030613491 -0.040432744 -0.027493047 0.08898299
quite -0.043952882 -0.04348798 -2.9600942e-05 0.05736074 0.040724788 0.043148726 -0.017257594 -0.036630005 -0.025964642 0.028575506 -0.07983294 0.10979204 -0.03226958 -0.0016281646 0.07919492 0.043274596
down -0.05019527 0.006642608 -0.070960484 0.021546494 0.035058964 -0.012232638 -0.020390524 -0.03341238 -0.014778199 0.021591006 0.019578103 0.069087625 -0.0013807447 -0.0024884986 0.012300006 -0.0023404376
want 0.024345996 -0.017613089 -0.025208728 -0.10871479 -0.006043025 0.007187644 -0.020544292 0.06766519 0.024845285 -0.0024941894 0.0033030568 0.043241814 -0.04615874 0.0045530614 -0.09940216 -0.06655163
world -0.065540895 0.022764627 -0.03490961 0.0059743975 0.02992794 -0.010985972 0.07572804 -0.07176519 -0.011663427 0.067950115 -0.02175179 -0.008833461 0.010221542 -0.03114683 0.070524104 0.01317666
things -0.031700116 -0.038135123 -0.0716067 -0.0042531253 0.022954522 -0.043776233 0.07598237 0.012725927 -0.008547347 0.06566854 -0.032962594 0.041978277 0.010939262 -0.039548256 0.04973735 0.07722289
pretty -0.008099822 -0.044808492 0.021485683 -0.03524251 -0.06859921 -0.04661861 -0.034087244 0.030451175 0.07286059 0.021379018 0.08365357 -0.090211526 3.1840093e-05 -0.026791407 0.022699961 -0.018816298
young -0.012224046 0.044427417 -0.009672163 -0.0010497526 0.04932287 0.044584554 -0.019611064 0.013351777 0.025124265 0.02297358 -0.03865562 0.057152547 -0.0020573298 -0.01798803 0.074969076 0.0398132
seems 0.032391448 -0.009275433 0.010109731 -0.03089164 -0.045588676 -0.025259048 -0.073159404 0.044252828 0.025122374 0.06294766 -0.036569063 0.05005119 0.041460015 -0.007076247 -0.06517087 -0.09097191
around 0.018175231 0.035383087 0.02768114 -0.016753113 -0.015338524 0.023428878 -0.017136073 -0.028658483 -0.02634115 0.01243733 -0.025757376 0.0445111 0.033791784 -0.061943337 0.0058173398 -0.017341271
got -0.085165866 -0.05595312 -0.014169024 0.0073878397 0.0044164667 0.060083516 -0.010599875 0.019548409 -0.07741666 0.061392073 -0.090217695 -0.071597345 -0.040902495 -0.05800186 0.07323174 0.017779801
horror 0.022309998 -0.0825472 -0.03506729 -0.03252837 -0.03486077 -0.02587464 0.019805836 0.032161567 0.028054122 0.008788649 0.04879986 -0.03922195 -0.043746922 0.0120288115 -0.07859432 0.027847387
however 0.019210534 -0.0049061477 0.10964453 -0.06687161 -0.039454468 -0.057256624 -0.006245099 -0.02597996 -0.02152413 0.0023253097 -0.051512957 -0.085741185 -0.009258438 0.052403994 -0.059744827 -0.021856926
can't 0.0016509767 -0.06539637 0.049068276 0.04191606 -0.050932515 0.0036110028 0.0031104502 -0.020017538 0.015977595 0.05430415 0.07054917 0.010357783 -0.0198712 -0.038608707 -0.0029746445 -0.0017678711
fact 0.049957085 -0.0006445823 0.020140994 0.010535193 -0.06171046 0.031232614 0.026163315 0.005934056 -0.018969264 -0.061777253 0.0030045107 0.006677489 0.03473017 -0.023086373 0.021213459 -0.055206794
take -0.073917754 -0.0032590963 -0.035177667 0.007396495 0.03280096 0.05025697 0.07819201 -0.077213496 -0.049534127 -0.07641554 0.022118513 -0.029059626 -0.054184742 -0.010859446 0.04567042 0.00058568426
big -0.04061953 -0.025632065 0.024935812 -0.020019336 0.04483598 0.036903333 0.060673386 -0.03849612 -0.029968673 0.052126694 -0.004976801 -0.08566411 0.018683927 -0.0111481715 -0.04048152 0.024914509
enough 0.0543854 -0.04578919 0.04713644 -0.027454704 -0.023477154 -0.09945984 -0.043305468 0.0881231 0.07634137 -0.039933015 0.02765148 0.018527674 0.03525641 0.041773617 -0.06445125 -0.07022605
long -0.0039008511 -0.02244852 0.044978883 0.049799018 -0.022537839 -0.029704917 0.01632916 0.061977297 -0.0006455973 0.018655458 -0.030950937 0.027451565 -0.013809476 0.027078396 0.013616397 -0.030652309
thought 0.0061739767 0.06796797 0.028121516 0.05058113 0.053083856 0.037653614 0.0036017075 -0.015455192 0.040442903 0.020120364 0.019203445 0.010132585 0.0072687436 -0.069936275 -0.010096228 -0.037581902
that's 0.02637676 -0.026549106 0.038724788 -0.05522591 0.014913923 -0.028887056 0.017478615 -0.034853812 0.018542005 -0.02965899 0.06943932 -0.022194054 -0.045310453 -0.01316013 0.012340636 0.008955045
both -0.08367643 -0.12144017 0.02334088 0.048716597 0.027738811 0.013529195 0.07328043 -0.01822201 -0.036903564 0.10303207 0.0078108874 -0.026105272 -0.070594795 -0.056521747 0.10684092 0.111779824
between 0.031349517 -0.10487149 -0.013969005 0.05083334 -0.03698485 0.062136058 0.025830446 -0.06311337 -0.046972767 0.010836324 -0.081438474 0.08097259 0.115911506 -0.033775553 -0.08802245 -0.04832785
series -0.009945776 -0.02925227 -0.05654931 0.011071406 -0.032286298 0.0031737187 0.0040345504 -0.04714364 -0.019792687 0.028703962 -0.064488314 0.019090295 -0.010864815 -0.018227512 -0.008019662 0.08150204
give -0.011080281 0.007782346 0.020802807 0.08216985 -0.029758045 0.01367559 -0.026116297 -0.056153804 -0.040773056 0.036088157 -0.077428296 0.03184427 0.022553094 0.0026347218 -0.048650805 0.024382368
may -0.111466266 0.006663931 -0.09357673 0.01308135 0.11051581 0.013059128 0.017021906 -0.046010282 -0.021714399 0.021370688 -0.029832263 0.027161306 -0.02553887 -0.012205427 0.008130598 0.046553165
original 0.04723489 0.010143394 0.15606812 -0.060508132 -0.05029786 -0.0640132 -0.1113585 0.047608443 0.030835755 -0.00039532836 -0.0003208692 -0.030869994 -0.005283019 0.06466563 -0.011882461 -0.03203233
own 0.016300682 0.048978373 -0.06990537 0.07301705 0.09492279 0.079465084 0.025869923 -0.033056796 -0.016152808 -0.051845662 0.012221747 0.027709229 0.020881724 0.00047211588 0.047745813 0.029511224
action -0.054696713 0.0097864745 -0.026943043 -0.0173311 0.031715244 -0.07047708 -0.04794447 -0.06244719 -0.014815226 -0.027120827 -0.00300915 -0.045571785 0.03354794 0.004276169 0.010655555 0.0561003
i've -0.06155199 0.05347092 0.0012134705 0.05721389 -0.060370464 -0.03482664 -0.011866422 0.012843729 -0.047310866 -0.028955385 -0.06437801 0.05743885 0.052016746 -0.0015217095 -0.002799658 0.0045935623
right -0.029946836 0.030074844 -0.05664261 0.035194967 0.081771664 -0.0016331789 0.045432176 -0.05456135 -0.044714082 0.06343862 -0.008370309 -0.06803487 -0.0017054417 -0.05773052 -0.0020924802 0.05351522
without -0.00062688696 -0.019912185 -0.017035244 0.03266012 -0.021468265 0.03709209 -0.028644457 -0.011768794 -0.008486833 0.023561053 -0.043244615 -0.07733033 0.065129295 -0.0075542047 0.053772405 -0.027557427
always -0.076866984 -0.11589381 0.009836507 0.031326838 -0.016088612 -0.0017255555 -0.009271471 0.037662778 0.013259438 0.0018567783 0.006503983 0.037675563 0.012104634 -0.02323627 0.05023542 0.08067163
times 0.0063825403 0.021777308 -0.05764359 -0.033650614 0.025838602 0.07223281 0.057993982 0.030715626 -0.019963773 -0.10433618 -0.05850408 -0.0726855 0.057483245 -0.07576498 0.058389567 0.072132654
comedy -0.030531028 0.02604011 -0.020064306 0.00022649883 -0.029913321 -0.0028858238 -0.016212704 -0.02188585 0.022959929 0.06479866 -0.014909267 -0.054894853 -0.031644914 -0.023330664 -0.062377103 0.0052397265
point 0.057344675 0.0062574334 0.013108641 -0.0908702 0.00033655952 -0.03772636 -0.032147735 0.07789627 -0.009357243 0.014599018 0.035499424 -0.06799174 0.057670895 0.06244701 -0.08288795 -0.040430892
gets 0.0549365 0.020498823 -0.036649186 0.063590385 0.003829334 0.036699153 -0.05417662 0.0020113918 0.0127845025 -0.03501594 0.0027668278 -0.035629857 -0.0442012 -0.059449315 0.032633934 -0.02141325
must -0.04251517 -0.03724561 0.017624559 -0.010825334 -0.0044797244 0.045596723 -0.052857608 0.02518492 -0.058146 -0.0070400788 -0.005547055 0.12323454 0.0059968415 -0.0072110933 0.03879765 0.030969987
come 0.028556174 0.00468163 -0.03174322 0.0032570094 0.07170715 0.030067746 -0.04084658 -0.042417068 -0.019378338 -0.059126373 -0.005508448 0.1026661 -0.0433695 0.035888582 -0.02260662 -0.015083294
role -0.030522984 0.042347975 -0.0004197408 0.0015075546 0.03563895 0.035388965 0.0033566568 -0.03889865 -0.021065269 -0.07205657 0.048804443 -0.0769162 0.05646026 0.06282314 -0.046142526 -0.040826615
isn't -0.022435743 0.049797878 0.017072981 -0.012141142 0.004650726 -0.052288666 -0.055797584 0.055790402 0.054665145 0.047361273 -0.028604122 0.042697657 -0.023751486 0.04144649 0.04349566 -0.027803184
saw -0.052010953 -0.07676963 -0.012745702 0.025574835 -0.050335437 -0.020852251 0.0042381245 -0.03882798 0.024983767 0.012336072 0.049909472 0.11466891 0.0023859965 0.004379774 0.046616647 0.06396703
almost -0.019554261 0.019347124 -0.0076921224 0.05305621 -0.03712998 -0.030649543 0.013487444 -0.045203913 -0.011214935 -0.010819083 0.004193964 0.07355171 0.039662063 -0.003624718 -0.036241863 -0.033688836
interesting 0.01899744 -0.0063812225 0.030162893 0.01975045 -0.10428528 -0.03186443 -0.11149536 -0.0016396884 0.03931249 0.012651341 -0.038140994 -0.072070085 0.026840791 0.044314336 -0.116979055 -0.041800782
least 0.07816231 0.0044401553 0.082862414 0.014701133 0.0052210535 0.014788131 0.011407462 0.04574329 0.05955152 -0.038110144 0.09629096 0.044662423 0.01844834 0.06433944 -0.02569569 -0.032187205
family -0.07575202 -0.015959838 -0.04237388 -0.021100815 0.052764956 -0.023795657 0.025141284 -0.040085964 -0.00011779705 0.101727016 -0.038699295 -0.02437566 -0.07778193 -0.011106884 0.009940534 0.059297435
done -0.026277112 0.00042470382 0.0543284 -0.017381936 0.0020313896 0.025825411 0.01989148 0.0035022127 0.026572073 0.015570872 -0.012928655 0.002404269 -0.09034201 0.025882866 0.031181676 -0.02046732
there's -0.0037957362 -0.016877327 0.08356394 -0.00850218 -0.07504294 0.062010147 0.006089286 0.0041381274 0.014619457 -0.026580442 0.034011636 0.053117994 0.06757105 0.10772447 -0.023911387 -0.005809382
whole 0.034044083 -0.056698132 0.058027603 -0.010652806 -0.019164704 -0.055736404 -0.008580415 0.058975264 -0.0003589806 -0.041382127 -0.012455249 -0.047813654 0.08508796 0.04480197 -0.097874716 -0.08622949
bit -0.029218247 0.024096716 -0.07425167 0.064889014 0.04854935 0.003799455 0.053008225 0.00021404124 -0.04377871 0.02856267 -0.040665798 0.009683366 -0.011006101 -0.10613703 5.174301e-06 0.049968526
music -0.05246631 0.005430255 0.00021179243 0.00936473 0.016994497 0.019842861 0.020675346 -0.023072524 -0.04944052 -0.0569362 -0.0576043 0.058608368 -0.0068955948 0.09400407 0.067346364 0.018599028
script 0.105129935 -0.060589027 0.105174184 0.027815131 -0.054997817 -0.07235017 -0.030558689 0.12427665 0.041663468 -0.040504318 0.09882588 0.036597922 0.082625486 0.082811624 -0.038693458 -0.045589224
far 0.014157918 -0.014226057 -0.043174542 -0.079222426 -0.030240301 -0.07974748 -0.09741195 0.027272323 -0.013483288 -0.07899429 0.07990037 0.00065796985 0.023007607 -0.024429854 -0.009308556 -0.004251958
making 0.11570818 0.042976707 0.091985054 -0.010326466 -0.069497064 0.01545635 -0.028285038 0.04664179 0.03480891 -0.08157692 -0.0036241524 0.09746621 0.009854116 0.10441564 -0.115136266 -0.11311666
guy 0.055502906 -0.056593075 -0.029916251 0.018091753 0.017116811 -0.05638579 0.01008914 0.012637103 0.026563464 0.033756696 -0.00033770205 -0.05374923 0.014359339 -0.05613455 -0.053623784 -0.07316955
anything 0.063853405 -0.041046195 0.064901374 -0.08876548 -0.0010345455 -0.013828563 -0.0979883 -0.010989954 0.08897327 -0.02315056 0.022177583 -0.050577704 -0.03819358 0.0049070898 -0.059644967 -0.06638379
minutes 0.10286081 -0.022433164 0.042399604 -0.041870955 -0.07285912 -0.08672648 -0.009020886 -0.013484341 0.06637145 0.033087395 -0.013622319 0.030182468 0.0065768883 0.057243977 -0.058822718 -0.0934386
feel -0.057270642 0.048963178 -0.037332255 0.0031331487 0.064268515 -0.04160624 0.05322724 -0.0044287946 -0.051217314 -0.077277415 -0.04804354 -0.015823439 0.030245926 0.024601322 0.009485345 0.035309307
last 0.018742181 -0.018545203 -0.034537658 0.013339058 0.014583121 0.018124267 0.037140653 -0.06466936 -0.027668519 -0.063026935 -0.04754916 0.036464315 -0.07750472 0.0030323998 0.0012286847 0.026850943
since -0.039282054 -0.008915766 -0.08201195 -0.010369959 0.0005074724 0.037921596 0.096038334 -0.064553775 -0.036670286 -0.042244587 -0.050682876 -0.093651295 0.014635168 -0.0068661585 0.058283344 0.049015302
might 0.022074468 -0.07729468 0.06079476 -0.06637277 -0.0023402541 -0.0094627645 -0.09974329 0.039226208 0.092740074 0.048978478 0.000630638 0.057660855 0.07333319 0.078429654 -0.019559449 -0.12118972
performance -0.039421562 -0.074902736 -0.055339918 0.016290244 0.03028389 0.024954308 0.022056192 -0.008035244 0.009541846 -0.13868313 0.03517417 0.07915637 0.13942699 0.019822834 -0.03615854 0.008155326
he's -0.009288516 -0.051644783 0.009036921 -0.011098011 -0.025626518 -0.029785214 -0.018564178 0.02250361 0.00034794482 0.03435857 0.046816934 -0.025451649 -0.03353008 0.037175663 0.02296798 0.017878925
2 0.041552838 -0.05168831 0.004383613 0.014883212 -0.015629612 -0.04277696 -0.046231233 0.04260047 0.03189576 0.0071442183 -0.0023396628 -0.0058377846 0.035764266 0.055733148 -0.028956838 0.0038198894
probably -0.013703655 -0.030395137 0.0032473279 0.032027874 -0.017304085 0.040575977 -0.032631103 0.010441871 -0.0079053445 -0.0072919508 0.041921612 0.011989249 -0.014506167 -0.044633206 0.035655685 -0.034607794
kind 0.006194851 -0.0044226237 0.010968075 0.0013336923 0.036757983 0.08006138 0.037604537 0.05499906 -0.030559784 0.052459568 0.03377484 0.091033496 -0.0320003 0.042423937 -0.055883568 -0.0063864295
am -0.015043754 -0.037020393 0.047626227 0.017497549 -0.05660296 -0.045558576 0.015351101 0.010176676 0.038623776 0.018795043 0.004687045 0.059868213 0.025286816 -0.02620601 0.0051387562 -0.049331054
away 0.024630945 0.020486316 -0.025506916 0.05207567 0.0077326833 0.034012932 0.0011302592 0.014921879 -0.022287972 -0.014038697 -0.0332006 0.046230607 0.010080096 0.02038787 -0.02200314 -0.07067889
yet -0.005262441 -0.015104993 -0.041126974 0.0752397 -0.029109076 -0.024326477 0.11768143 -0.02125504 -0.035545286 0.027343512 -0.026172409 0.04906847 -0.039581407 -0.07392242 0.05111524 0.027886655
rather 0.0042510927 -0.00022401786 -0.01900977 0.053202797 -0.031724144 0.016951686 -0.012029593 -0.037357107 -0.032659218 0.01883083 -0.033590924 0.00341911 -0.008125087 0.043495327 -0.020752788 -0.01790254
tv -0.056069914 0.025377525 0.055692546 0.013916975 -0.04233791 -0.0033355837 0.002580931 0.031627186 -0.005986059 0.05182155 0.049220804 -0.0081813065 -0.009556068 -0.030467734 -0.01685809 0.008092229
worst 0.18402015 -0.16001168 0.11031325 -0.062558234 -0.09343822 -0.17167 -0.11398691 0.12127663 0.10832905 -0.1610574 0.088014804 0.18819307 0.117521726 0.1697528 -0.10353696 -0.13367812
girl 0.037158348 0.04548093 0.009765075 -0.020204248 -0.0006183168 0.010656276 -0.05194737 0.032531857 0.096892454 0.029031489 -0.01589559 0.06823875 0.024893988 0.03590864 -0.015234966 -0.05282784
day -0.07427765 0.041517787 -0.047611654 0.057478078 0.04697516 -0.039710086 -0.064796284 -0.005833279 0.027976897 -0.07439545 -0.011101133 0.07423467 -0.004767925 0.02663782 0.03813908 0.06674689
sure 0.031108525 0.023348432 -0.00789339 0.07214256 -0.025726935 0.044614464 0.007417124 -0.02404967 0.004004591 0.00057960686 -0.07305044 -0.03680029 -0.009619889 0.03398094 -0.031833477 0.027613118
fun -0.061923046 0.054075956 -0.0744415 0.042517684 0.10016377 0.06419462 0.04052219 -0.10962027 -0.12921838 -0.054299463 -0.04154816 -0.11286768 0.028249823 -0.051911343 0.0179948 0.021846216
hard 0.051294062 -0.016814949 -0.03839869 -0.08765669 -0.00426104 -0.0033375 0.03787246 0.055752322 -0.028116958 0.069534294 0.006931653 0.046878126 -0.040111236 -0.032665055 0.00976469 -0.0039960896
woman 0.055229127 0.027415056 0.08171638 -0.030936923 0.018146727 0.0413781 0.032511625 0.074688695 0.013265792 0.01971482 0.04468737 0.051761083 0.043494105 0.031860705 -0.08688624 -0.045666836
played -0.0044748485 0.033440746 0.0047138007 0.024819896 0.04074867 0.04485175 -0.017263131 -0.014576363 -0.058106177 0.0057912655 0.04390166 -0.04026994 -0.063554175 -0.016716056 -0.009288679 0.04878172
each -0.08046235 0.018877406 -0.08949405 0.025676483 0.06493144 0.016549202 0.06837508 -0.0776049 -0.10146239 0.013651493 0.037834752 0.057191946 -0.025484607 -0.07254752 0.03331027 0.07325719
found -0.0061319345 0.0065680244 0.0860935 -0.016721455 0.030658014 0.00611502 -0.056072515 -0.01692213 0.008354131 -0.010174229 -0.06050588 0.031307366 0.0019564547 0.021743238 -0.010253074 0.03527592
anyone -0.006263865 -0.002289846 -0.03430062 0.05449148 -0.07067609 -0.061324608 -0.009409491 0.043895222 -0.032297086 0.06320409 -0.022652198 0.063891724 0.0129128955 -0.022171669 -0.0515222 -0.019399267
having -0.008644209 0.016689492 -0.047783237 0.012923463 0.06060649 0.05876362 0.07650505 -0.046771232 -0.096214324 0.077015296 0.0012004682 0.040840767 -0.012670683 -0.048683617 0.050381385 0.025243657
although -0.061594483 -0.022223892 0.020716473 0.0042966837 -0.019205008 0.062927835 0.050242223 -0.0007545794 0.024031349 0.012186795 0.002383333 -0.053073253 -0.018739814 0.031348716 -0.0025733858 -0.009586637
especially -0.09887421 0.06127787 0.009060346 0.007916417 0.041699972 -0.021000488 0.022366554 -0.033790745 -0.090547115 0.09632478 -0.086560294 -0.0020665715 0.030573571 6.8639856e-05 0.09792267 0.08756586
our -0.036364622 -0.04843913 -0.026123593 0.04730326 0.0200168 0.07220057 0.0010652918 -0.044313613 -0.042257305 -0.018680379 0.009765939 0.055595055 0.030064791 -0.046819057 0.018040191 -0.008345865
believe 0.034338947 -0.036283344 0.0050695636 -0.02007473 0.066942595 -0.009877016 0.0051648654 -0.07674653 0.0347813 0.082155764 0.058284156 0.024135226 -0.06114717 -0.033543985 0.0012794001 0.03735785
course 0.03305658 0.06951709 -0.014118964 0.06252373 0.018434342 0.08473089 0.035972796 -0.07061388 0.019569427 0.018467514 0.013533706 0.016179796 -0.0040147016 0.023073304 0.04393458 0.016100248
comes 0.02003466 -0.013109937 -0.02907459 0.0019887188 0.032728188 0.04394692 0.01114531 -0.057327993 -0.0633027 -0.028642016 -0.035480797 0.024183473 -0.039034594 0.00071209046 0.053579003 0.035839505
looking 0.044401035 -0.004105228 -0.0032248066 0.0031310434 -0.04122348 0.017690383 -0.043420076 0.023780435 0.0047292993 -0.05656573 -0.020893896 0.071538016 0.035020318 0.07531876 -0.037561294 -0.021600073
screen 0.032276135 -0.004028343 -0.08169415 0.026961014 0.02577527 0.004336398 -0.00041568535 -0.011925174 0.0069781234 -0.0148710795 0.023502482 -0.052180234 -0.1012231 -0.034647338 0.041485835 0.028108582
trying 0.08248694 0.014577152 0.044116184 -0.010075108 0.053992234 0.0692508 -0.037702497 0.009649381 0.042897385 -0.05010322 0.044111334 -0.030520475 -0.033797335 -0.0055162325 -0.03359243 -0.0024182205
set 0.034483872 -0.03283964 -0.020587793 -0.07636708 -0.057438076 -0.075137384 0.012854018 0.078930445 -0.006686693 -0.028382989 0.0029185766 -0.017155426 -0.028696245 0.0789144 -0.04901221 -0.042526163
goes 0.022187568 0.002500592 0.026704356 -0.02182778 -0.034287587 -0.013022071 -0.056197796 0.100099 0.06638656 0.00029669655 -0.030582339 0.0641637 0.075342946 -0.019285407 -0.0777937 -0.04109935
looks -0.006060711 -0.062927864 0.068037234 -0.02174694 -0.0372484 0.02099404 -0.0636026 0.08162914 0.07942864 -0.0293402 0.025662849 -0.005736728 0.0649133 0.092087634 -0.088145375 -0.08962869
place 0.005740496 -0.069604374 0.07356727 -0.014189131 -0.032307297 0.0069966135 -0.042238228 0.013161948 0.07555406 -0.024667628 0.10042872 -0.031114172 0.040305924 -0.040400658 -0.027560957 0.020423165
book 0.06330718 -0.09058347 0.046198957 0.006312518 -0.056683213 -0.03543034 0.007511617 0.024060443 0.06407884 -0.04224281 0.028458351 0.024981877 0.067429736 0.046911873 -0.03904216 -0.012195194
different -0.008258794 0.084485084 0.024116773 0.031407543 -0.06478857 0.033064544 0.086317495 -0.03721708 -0.08853232 0.00198331 0.0005867305 0.014383716 -0.03244385 -0.06670896 0.006192311 0.042879056
put 0.0021370281 -0.034112375 -0.031005843 -0.04099179 0.0054496154 0.0054938574 0.048600707 -0.0030355635 -0.018960258 -0.017477423 0.03713474 -0.03338769 -0.0107267415 -0.0041274233 -0.0025009387 0.06365254
ending 0.050067976 -0.03610563 0.04691457 -0.0010592825 -0.01062676 -0.023085317 0.018907573 -0.0033361893 0.07009014 -0.029463695 0.007900489 0.013528223 -0.016136345 -0.029316446 -0.058740202 -0.013889158
money 0.059266243 -0.024518572 0.065041035 0.004464203 -0.054565717 -0.030116597 -0.068621494 0.03897071 0.05756052 0.012350293 0.08540297 -0.007803089 -0.015368484 0.0379795 -0.023270736 -0.060018722
maybe 0.00931401 0.012453079 0.027561497 -0.034748998 0.053150367 -0.020901999 0.010026615 0.034810193 0.05705393 -0.008789064 0.041764244 0.07176526 0.025271181 -0.005452844 0.024789799 -0.04959521
once -0.01626189 0.011121527 -0.0049041216 0.05251741 0.0040634596 -0.034292925 0.030088238 -0.024026299 -0.006018324 0.03920064 -0.02072176 0.041843362 0.023745859 -0.07395487 -0.0009396572 0.041729946
sense 0.02255904 -0.03173951 0.012078456 -0.0033202826 0.004053058 -0.05254925 -0.012918767 -0.032025762 -0.021999275 0.08681876 -0.01949219 0.0648068 0.03212867 -0.013180652 -0.016148804 0.05370478
reason 0.07309636 -0.062022474 0.05906015 -0.025950786 -0.10510424 -0.011469802 -0.060088016 0.011878936 0.018990502 -0.11126275 0.060958713 0.05492518 0.032848507 0.024180654 -0.002283758 -0.08874781
true -0.032575537 0.016861351 -0.10728783 0.0138270445 0.10841615 0.10631484 -0.014634237 -0.045264695 -0.045686986 0.060588464 -0.025136055 -0.025952736 -0.016207434 -0.058516182 0.031909846 0.10996785
actor 0.023738906 -0.032660455 0.045421734 -0.084296085 0.0088019185 -0.009444907 -0.02253413 -0.027568176 0.06922481 0.022342876 0.07241367 -0.053915486 0.009878305 0.055013724 -0.073191725 -0.062241197
everything -0.0033348922 0.0025214176 -0.06664667 0.00495826 0.040438186 0.018355345 0.0033973616 -0.008610817 -0.015963756 0.038276337 -0.0726478 -0.029283497 -0.06151687 -0.0049248124 0.00025315367 0.02106778
wasn't 0.04129986 0.05463995 0.0729925 0.0058727968 -0.007151594 -0.07551934 -0.035365727 -0.009464333 0.033883974 0.055282015 -0.014004987 -0.09977735 0.010542764 0.03451372 -0.052497964 -0.009189829
shows -0.07081568 0.07697646 -0.070466526 -0.0059944075 0.08067016 0.04333682 0.021636225 -0.029121866 -0.059949417 -0.0048717204 -0.017448116 -0.078157246 -0.074075736 -0.051429946 0.075594515 0.02015099
dvd -0.032921035 0.05948451 -0.017538987 -0.009537209 0.020816065 0.006560864 0.048085812 -0.05152513 0.023806205 0.022979615 -0.051307477 -0.046857208 -0.010511856 -0.062975645 0.06338599 0.036259953
three 0.049807526 -0.033798292 0.09737191 -0.04872829 -0.048650365 -0.02656382 -0.008389011 -0.022059627 0.029860709 -0.051223125 0.0451492 0.04067727 0.11082222 0.03370923 -0.092926845 -0.057115827
worth -0.04152457 0.03242471 -0.06251823 0.08785735 0.0034568403 0.10237316 0.05405188 -0.042813886 -0.09776699 -0.12911749 -0.06672168 0.0912151 0.027130002 0.006580142 0.020501738 0.017608581
year 0.008723718 -0.038648564 0.022665976 -0.010734622 -0.03166945 0.03859161 -0.042091973 -0.01627468 -0.0063923784 0.10123083 0.038733575 0.0045745526 0.0037329234 -0.035187107 0.0179443 0.014321298
job -0.08225614 -0.14393382 -0.08313703 0.03686958 0.029730052 -0.025123961 0.111621246 -0.068677776 -0.0213999 -0.13685022 -0.08119291 0.027455194 0.031255648 -0.01586335 0.100275174 0.103370994
main 0.01505174 0.023985116 -0.0002989727 0.0057544927 -0.056428988 -0.03742891 -0.02749334 0.053817347 0.07462753 0.06393675 -0.017951649 0.042985395 -0.002255106 -0.037868295 0.013563125 -0.033320222
someone 0.06873933 -0.015829438 0.08048164 -0.078104675 -0.0228639 -0.10712333 -0.10067154 0.041764595 0.043128587 -0.022144107 0.011761004 -0.007362211 0.018316751 0.08110094 -0.08255908 -0.10883615
together -0.08917675 0.0029951015 -0.030151526 0.079859726 0.1233309 -0.0132428305 0.05290609 -0.117049545 -0.067251526 0.10117082 6.2479936e-05 0.07524962 -0.014126821 -0.06315709 0.117753394 0.1148814
watched 0.058398858 0.012839817 0.06377725 0.012916392 -0.08001037 -0.06611215 -0.07617413 0.06420236 0.113207184 -0.084436856 0.04744167 0.06944718 0.0949182 0.09329077 -0.053761825 -0.014051044
play -0.051284414 -0.013076908 -0.004753823 0.04540149 0.008340386 0.029800346 0.044420663 -0.021703044 -0.06668771 -0.012800461 -0.050081223 0.040127985 -0.074903786 -0.050265178 -0.0007450545 -0.014943436
american -0.026499022 0.008386812 -0.005860856 -0.033494104 -0.016275655 0.018627854 0.060615584 -0.03293559 -0.0154473195 -0.011283526 -0.026132489 -0.12461586 0.0412061 -0.048662372 0.06272425 -0.014429338
plays 0.0032300993 -0.11909794 0.041394357 -0.06162306 0.0041520414 -0.0396769 -0.012338556 0.0064193783 0.065313935 -0.04447907 0.11957806 0.05237022 0.026695043 0.027148947 -0.02902779 0.03136029
1 0.077410184 -0.04418894 0.12692806 -0.09889498 -0.082113646 -0.09548615 -0.058285404 0.12731601 0.11506585 -0.050004363 0.084600426 0.046263963 0.09941996 0.08949356 -0.101923786 -0.10636016
said 0.10919068 -0.045395773 0.05455685 -0.005600521 -0.006547945 0.023901356 -0.03921069 0.045185562 0.055738073 0.027431006 0.015384359 0.012152268 0.077388875 0.06930895 -0.03436929 -0.015070799
effects 0.05046884 -0.03528673 -0.003020744 -0.06283083 0.0023828347 -0.12191701 0.053400416 0.025566326 0.09099826 -0.046486236 0.003607465 -0.007942208 0.043977942 0.082668744 -0.059619945 -0.06345129
later -0.0047280234 -0.04384414 -0.00712816 0.00780899 0.04653802 0.040764462 0.03822787 -0.04180748 0.021352736 -0.017017689 0.055896554 0.035197884 -0.01745216 -0.0008493977 0.033571057 0.015103831
takes 0.037459143 0.03557477 0.08648171 0.053117786 0.045170814 0.06003272 0.034139067 0.016757997 -0.04240655 0.06032919 0.02084504 -0.03325434 -0.056027256 -0.032087453 0.08377337 0.059834745
instead 0.11004883 -0.06279805 0.030026529 -0.08854487 -0.05868611 -0.073575 -0.066693716 0.02740013 0.0769262 -0.006037442 0.018563254 0.028901665 0.064142406 0.06328713 -0.004892116 -0.043577064
seem 0.038124863 -0.06374781 0.048198465 -0.014968703 -0.08396554 0.013102729 -0.017010834 -0.04281711 0.076382436 -0.05188856 0.0013686231 0.002661094 0.024193697 -0.047733583 -0.04534782 -0.01502722
beautiful -0.04564127 -0.04055785 -0.07346836 0.038377516 -0.029030526 0.1018891 0.011955514 -0.062848784 -0.038539596 -0.03865878 0.028943786 0.06970748 0.0078064194 -0.043195833 0.048340626 -0.025363302
john 0.005321126 0.014739227 -0.038649652 -0.065749206 -0.071279444 -0.02558393 -0.014169771 0.04745222 0.044367358 0.044828724 0.011622833 0.04230242 -0.017126096 -0.02115219 -0.0024625293 0.052594505
himself 0.060055993 0.033304866 0.052570336 -0.030028092 -0.014438621 0.0356293 -0.08657229 0.03443105 0.054183584 -0.016475331 0.015053126 -0.04440932 0.001072358 0.0036262732 -0.021364909 -0.03284132
version -0.060004637 -0.06375052 -0.016157648 -0.022976255 -0.0050823316 -0.005672588 -0.0047626714 -0.047908917 0.01687521 -0.030699164 0.053523738 0.058547422 0.025847314 -0.023558687 0.06857787 0.041860674
audience 0.04808045 0.021111622 0.010643232 -0.065645985 -0.031094704 -0.009070513 0.004616603 -0.023009075 0.07898273 0.011913733 -0.008952799 0.044232402 -0.0788433 2.394188e-05 -0.017245287 -0.1002584
high -0.05203634 0.03896971 -0.043471366 0.084821895 -0.01889731 -0.02662524 -0.0050032474 -0.0062905443 0.029380834 -0.023846751 0.008654924 0.051721424 -0.0770831 -0.025786122 -0.0063619805 0.06126418
house -0.012924605 0.0092146555 0.029533304 0.0047312765 -0.01815982 -0.110036075 -0.004429211 0.001307196 0.058337346 0.0011009625 0.008568179 0.010532561 0.0060404385 0.020286597 -0.014544308 0.022337917
night -0.042477656 0.013240412 -0.018204067 0.02059294 -0.02761529 0.001357718 0.03974362 0.019383166 0.036295846 0.0019063127 -0.00022120595 -0.060389936 -0.045675863 0.033004522 -0.019612418 0.037789304
during -0.029488029 -0.016590115 0.021047777 -0.05639272 0.016542893 -0.07378873 0.033348426 0.010976037 0.010401132 0.01009192 0.0549158 0.03888493 0.010073294 0.010846122 -0.042802136 0.0384429
everyone -0.031622153 0.004069466 -0.075080626 0.086524636 0.047340788 0.001517984 0.088817984 0.014202127 -0.094205596 0.047728397 0.015679045 0.0962369 -0.08348579 -0.030732704 0.09510539 0.06027128
left 0.044542085 -0.0074792565 0.015930818 -0.009729829 0.008831734 -0.024031335 -0.055765864 0.03415377 0.017944431 0.053595964 0.07421989 0.06646878 0.062837385 0.0049175927 -0.011765422 0.016120581
special 0.01269224 -0.043256912 -0.024575604 0.051853403 -0.030921848 0.08797984 -0.03663823 -0.030719787 -0.03299971 -0.029078716 -0.062583774 0.07193325 -0.10311103 0.06663682 0.05379723 0.005001056
seeing -0.015148391 0.003436242 -0.011340074 -0.015262538 -0.019154767 -0.025741445 0.0031420663 -0.024794398 -0.026218994 -0.03778453 -0.0028569128 0.0905314 0.043479603 0.0439792 -0.0066484082 -0.0071494393
half 0.109486334 0.00832351 0.09682222 -0.021464514 -0.03188355 -0.08131121 -0.043145336 0.06428641 0.080589764 -0.063044794 0.1054925 -0.05525349 0.09011508 0.08199289 -0.01869675 -0.049421363
excellent -0.101783 0.12973735 -0.12664598 0.08779729 0.09248804 0.06155322 -0.032679077 -0.061616085 -0.0725661 -0.04907798 -0.098580115 -0.123851284 -0.02523909 -0.07128555 0.10975747 0.11281714
wife -0.04862226 -0.0022560472 0.017642897 -0.004986089 0.055500653 -0.007267917 0.048800565 0.018629577 -0.0054017636 -0.0020125422 -0.03565678 0.008804213 -0.011895235 -0.057795357 0.032513037 -0.017315451
star 0.012836281 0.030181201 -0.0100225685 -0.03663598 -0.0052169645 -0.019097738 -0.026990592 -0.019370338 0.050577074 -0.042776313 0.032090336 0.038288407 -0.023015788 -0.044118684 0.016152771 -0.017352499
shot -0.002290766 0.014983503 -0.0378945 -0.05194455 -0.01526362 -0.0553097 -0.045532443 0.012688978 -0.014272206 -0.051153157 -0.014607608 -0.102728635 -0.0041688764 -0.03480944 -0.07535945 -0.038370695
war -0.048114803 0.09176869 -0.0032649923 0.02538125 0.044673763 0.009358529 0.028666187 -0.06598512 -0.096041605 -0.062682934 -0.0770045 -0.065560974 0.05853698 -0.036546163 0.030920725 0.08909459
idea 0.11325264 -0.032226164 0.017128143 -0.04637588 -0.029677482 -0.026323617 -0.062604204 0.05827653 0.044411417 0.030425336 0.09518125 0.06802356 0.08129766 0.09369522 -0.05281175 -0.04548442
nice -0.010613522 0.0143658975 -0.07504912 -0.006486032 0.04792353 0.047262136 0.052479446 -0.05948816 -0.05552762 -0.037448958 -0.037543837 0.0039782114 -0.0042047203 -0.055515945 0.02822648 -0.010767887
black 0.05127003 -0.016204257 0.007473391 -0.09778116 -0.0720242 -0.023944981 -0.046687953 0.034398545 0.00057816785 0.02276601 0.037573874 0.016310899 0.06306421 -0.008499935 -0.003327884 -0.007684579
less -0.02270217 0.022383623 6.128961e-05 -0.039088953 0.055649623 -0.035305597 -0.019986771 -0.028289828 0.0560362 -0.0351582 0.013910079 -0.041321974 0.0026975884 0.04051391 0.002219659 0.025216645
mind 0.02135479 -0.031524956 0.057168037 -0.0136235915 0.031234436 0.012452655 -0.023746016 0.0005026826 0.0022932512 0.07435865 -0.028010916 0.014961645 -0.04280962 -0.031437542 -0.025609214 -0.028635275
simply 0.10718126 0.014681005 0.06797314 -0.103374675 -0.057828546 -0.101521485 -0.038183536 0.0027718218 0.100902714 0.06880198 0.07641625 0.020192174 -0.019530088 0.057025146 -0.025562184 -0.03561083
read 0.048936065 0.038909066 0.027831698 -0.007936602 0.04217552 -0.006221679 -0.025300713 -0.018034907 0.021398637 0.016275244 -0.021332713 0.08277539 -0.03517391 -0.02029334 0.05776577 -0.013912666
second -0.010560391 -0.075568564 0.056874204 -0.05636875 -0.065278575 -0.0153057575 -0.01321063 0.07833662 0.04833917 0.10219372 0.032620925 0.024679895 0.061429027 0.040093254 0.015969 0.013928789
else 0.020271216 -0.035189968 0.023361292 0.0044724243 -0.03679984 0.0066961814 -0.010813506 0.06284543 0.114341006 -0.087458044 0.031239517 -0.008226046 0.023395026 0.09761853 -0.03661437 -0.033163913
you're 0.028329158 0.058481026 0.03568005 -0.0120350355 -0.07099827 0.02774911 -0.024809856 -0.01640843 -0.044007428 -0.008126053 -0.026849348 -0.03676607 -0.002705181 0.012213122 -0.07815033 0.00027747493
father -0.050193865 -0.017607989 0.024096914 0.081113264 0.069619216 0.05492125 0.033069223 -0.06397337 -0.0592392 0.017895928 -0.007988583 -0.008728766 -0.024615055 0.0535322 0.07173965 -0.026719771
fan -0.029343514 -0.04279492 -0.0066940323 -0.031030029 0.015146085 0.0044359714 -0.039605055 -0.0025719304 -0.021949455 -0.004102598 -0.039260004 0.056184538 0.023681697 -0.00717989 0.004556687 0.017256303
poor 0.109843485 -0.105172515 0.10978512 -0.120778814 -0.14943922 -0.13442048 -0.1264841 0.1327811 0.14341715 -0.0940038 0.17467932 0.057169657 0.12949976 0.14538985 -0.08489537 -0.13081592
help -0.012509671 0.030405894 0.02237185 0.019905917 -0.033616062 0.0073824027 0.016417023 -0.03899918 0.01146791 -0.07023214 -0.00520955 -0.019986354 0.0050403443 -0.024158375 -0.015243179 -0.0418435
completely 0.07454928 -0.03611896 -0.016510796 -0.026161842 0.03733126 -0.009457111 -0.04274137 0.052954946 0.07391991 0.0063940026 0.007901905 -0.051718757 0.031491645 -0.022808794 0.017232152 -0.0898599
death -0.052601084 0.011112947 0.011756566 -0.020365847 -0.0015767665 0.050341066 -0.0014887856 -0.047195457 -0.014548756 -0.0005091845 -0.043933664 -0.0929512 -0.01189356 0.03144957 -0.007710798 0.0065086926
3 0.09792027 -0.030733578 0.017692525 -0.05088489 -0.101193756 -0.032200284 -0.057860754 0.08168806 0.010638277 -0.0722757 0.03991103 0.02085596 0.0030625693 0.1183213 -0.087605186 -0.06991099
used 0.043529008 -0.022527141 0.049701173 -0.009603907 -0.009311083 -0.033442713 -0.0493339 0.023222977 0.087779135 0.058001194 0.015775768 0.016665842 0.0019473804 0.06258672 -0.062158138 0.0029181908
home 0.016614528 -0.025314445 -0.03783401 0.0074834283 -0.032144945 -0.012526972 0.028775714 -0.037688244 0.033859905 -0.106796086 0.038998075 0.10386503 0.012719879 -0.008834625 -0.057230253 0.0028761458
either 0.1090134 -0.019991938 0.048026882 -0.0018441235 -0.018119639 -0.06115597 -0.06899498 0.02617554 0.00046412047 -0.034341484 0.06277936 -0.088988416 0.015161624 0.05780381 0.007838485 -0.050788336
short -0.04879324 -0.035080083 -0.04317586 0.048573848 0.09408271 0.002159049 -0.04782567 -0.032765064 -0.017348386 -0.015480839 0.014062912 0.020858705 -0.07622162 0.014590049 -0.008299794 0.07769963
line 0.064840764 -0.047823686 0.047252826 0.04815047 -0.0056477315 0.014236725 -0.078541145 0.025663774 -0.029427964 -0.08432908 0.010452652 -0.0077370633 -0.030156607 0.08150979 0.003007398 -0.08063493
given 0.038594916 -0.041581325 -0.004870821 0.057686906 0.01902967 -0.027537541 0.023574146 -0.006171729 -0.06358274 -0.055539574 -0.041125033 0.05347179 0.012672468 -0.021616943 0.05037382 -0.007277817
men 0.036702253 0.06814982 0.038982827 -0.04443044 -0.02087501 -0.0159047 0.01149955 -0.04871604 -0.0024144116 0.010924638 -0.025649361 0.041038793 -0.026072271 -0.02010109 -0.0059799105 -0.045564458
top 0.011807227 0.024073023 0.0033414513 0.021346392 -0.009194037 0.002193083 0.000597606 -0.014056503 -0.07510134 -0.0036120636 -0.006184018 -0.100207806 -0.020604229 -0.040925726 0.026651355 -0.027084023
dead 0.02626541 0.05835907 0.017328719 0.047136076 0.021214107 -0.027512552 -0.017260969 -0.031209037 -0.0094338 0.07751418 -0.011165748 0.049347468 -0.024759822 -0.037366062 -0.028551713 -0.023950055
budget 0.08617768 -0.020296475 0.021842536 -0.044905238 -0.02676265 0.012575802 -0.07652335 0.021120572 -0.021939173 -0.023464987 -0.008016771 -0.057045758 -0.045067098 -0.04765939 0.030455584 0.027484834
try 0.0884261 0.06325888 0.0003187951 0.033975 0.0379764 -0.030217467 -0.054539528 0.011694654 -0.007439719 0.016995424 0.032664508 0.008306965 0.0071077137 -0.008468844 -0.016386954 -0.050169297
performances -0.08403267 -0.13799134 -0.0047465614 0.066907495 0.08661517 -0.030622412 0.031750783 -0.08140071 -0.08259324 -0.034078326 0.060340915 0.040835805 0.097609915 -0.063985795 -0.013499613 0.050802585
wrong 0.02373823 0.007422851 0.032189615 -0.014832157 0.019483779 0.008550042 0.021265177 0.04193958 0.041998696 0.06240327 -0.048182093 -0.059915517 -0.020476049 0.009476694 0.0020161378 -0.04284907
classic -0.070383765 -0.0378377 0.027848165 -0.017299237 0.025734745 0.033875994 0.023066996 -0.051826794 -0.06654767 0.11521261 -0.059751656 0.09766261 -0.038073592 -0.057634212 0.00034581727 0.073658936
boring 0.106411576 -0.12240628 0.09889663 -0.1100346 -0.15975465 -0.124811836 -0.1090102 0.1539747 0.1146106 -0.028046235 0.098817065 0.1157018 0.17323878 0.117689036 -0.14736803 -0.1749422
enjoy -0.07841972 -0.07727065 0.014934385 0.032373328 0.08214296 0.047121737 0.09607441 -0.05980714 -0.108781435 -0.0077911196 -0.020008108 0.07718703 0.02603758 -0.12093259 0.025608525 0.030803822
need -0.014512665 0.057146177 -0.025515769 0.046375282 0.01201714 -0.007334356 0.043495692 -0.09934764 0.0010025767 -0.034172375 -0.08036486 0.0721517 0.04982007 0.02706048 0.009733558 -0.052410122
rest -0.014702856 -0.032616813 -0.008138195 0.028212737 -0.0040082685 -0.054463338 -0.050741673 0.03659428 0.047167007 -0.09248985 0.034482487 -0.009780985 -0.024434628 -0.018227808 -0.06611118 -0.010654385
use -0.017729195 -0.0059254053 0.044733465 -0.021898145 -0.041738257 -0.0020921878 -0.026873799 0.047374964 -0.024352841 0.0411356 -0.017008185 -0.0029030098 -0.023595706 0.016512671 -0.038714718 -0.02520351
kids -0.004921249 -0.054101437 -0.008432054 -0.025385048 0.044068426 -0.04073466 0.008184222 -0.0511685 -0.05207497 -0.0037399577 -0.011996633 -0.038833294 0.02200239 -0.014218727 -0.0319986 -0.0208811
hollywood -0.017931394 -0.06200703 -0.040812083 -0.0139527675 0.029335324 0.057700776 0.010710993 0.042693686 0.02044652 -0.075657025 -0.02456092 -0.015563691 0.009170535 0.00029471435 0.017759487 0.0016068956
low 0.1089713 0.010221209 0.02485335 -0.014828861 -0.05395734 -0.031169012 -0.085918896 0.022367077 0.00507591 -0.06585321 0.011790738 0.05018402 0.020683866 0.027466167 -0.0985127 -0.05515996
production 0.011489156 0.014428049 0.051500548 -0.048064835 0.0043774317 -0.04518526 -0.056498595 -0.0388528 0.080067545 0.0047434834 -0.013786144 -0.00679507 -0.005239587 0.06745509 -0.068757735 -0.045504067
until -0.052066386 0.007211452 0.034045883 -0.020763423 -0.0113131935 0.019687792 -0.0017908933 -0.010527387 -0.052931216 0.046285316 0.019937528 -0.06052606 -0.022964092 -0.032621473 0.022799466 0.067585
along 0.0403894 -0.06866916 0.0070383335 0.05420229 0.002088034 0.00038538498 -0.06559455 0.049632423 -0.042495936 -0.08355374 -0.030422647 0.13530216 0.025030885 0.060975738 -0.0045758313 -0.024891047
full -0.030031152 -0.014698226 0.0361007 -0.027746912 0.022124149 0.057854254 0.020253992 -0.011045047 -0.035946272 0.09921817 -0.03757172 -0.03713799 -0.013166845 -0.05524328 0.04223685 0.0036465973
friends 0.001968258 0.03483277 -0.008681076 -0.036899753 0.060195614 0.0022347914 0.026292793 -0.023474684 -0.0004286216 0.11487673 -0.0091757765 -0.03206395 -0.122717 -0.016498953 0.055623177 0.04822944
camera -0.018961882 -0.015317425 0.03806154 -0.02878175 -0.03397141 -0.04578611 -0.05578221 -0.06665085 0.05903468 0.07889784 0.05794996 -0.07927507 0.021938974 0.056351285 0.015368545 0.032108597
truly -0.02982577 -0.050695755 0.056759786 0.059943613 -0.03812574 -0.066466264 0.08586426 -0.044758536 -0.013769897 0.08741203 -0.013081143 0.049947143 -0.034084562 -0.10875045 0.06572803 0.053690802
women 0.0059940154 -0.04141475 0.033622764 0.048621677 0.013474705 0.043125145 -0.08572449 -0.00069885503 0.028614523 -0.03813576 -0.001146929 -0.05959346 0.019311612 0.05379395 -0.0028370991 -0.050876588
awful 0.17164966 -0.10105979 0.11418343 -0.17246588 -0.10663748 -0.15384169 -0.09330001 0.14989224 0.12481598 -0.12202419 0.12885748 0.12870084 0.15769897 0.112412095 -0.11253086 -0.1385654
video -0.022729812 0.07242737 0.05202698 0.056357443 -0.026646825 -0.0116223395 -0.049115196 -0.03244357 0.026922094 0.046231385 -0.017322553 -0.008879992 -0.040667746 -0.014649461 -0.0071162484 9.076479e-05
next -0.041100297 0.078326724 -0.06035362 0.03845457 0.03805579 0.0016277238 0.007681576 0.0019321861 0.00046668292 0.04454453 -0.07047973 -0.046427947 -0.008158182 -0.0017091499 -0.029664336 0.0001829911
tell -0.023596171 0.07300831 -0.031172877 -0.04658698 -0.01149905 0.0044997614 0.03381448 -0.03193976 0.003203724 -0.00842508 -0.030539887 -0.062441904 -0.02776383 0.07360183 0.02065139 -0.025565095
remember -0.07376876 -0.057140138 -0.024933584 0.009022309 0.011553116 -0.009178358 0.0847333 0.04296529 -0.064990774 -0.018091116 -0.004751022 0.057610832 -0.004754519 -0.029369058 0.08014091 0.06571703
couple -0.0005020184 -0.052328434 0.074947156 -0.035372976 -0.06330661 -0.006729672 -0.029423427 0.058683556 0.013714765 -0.04620523 0.077441745 0.02201145 0.05584055 0.03946494 -0.035872255 -0.011728185
stupid 0.10189901 -0.025546463 0.08487296 -0.024892034 0.012268991 0.03345054 -0.06846772 0.04431861 0.08554298 0.07086261 -0.00095169275 0.02042096 0.026555829 0.08776026 -0.06787634 -0.024811555
start 0.049246944 -0.06007171 0.043700527 -0.066147156 -0.058509316 -0.025600873 -0.07114528 -0.008411021 0.023668699 0.0045631533 0.019277357 0.02806731 0.014268331 0.047215197 -0.051447943 -0.0025342598
stars -0.030141853 0.05076 -0.035100102 0.04772911 0.057029504 0.00751388 -0.012969025 0.020926975 -0.007788216 0.011310507 -0.06468089 0.024291443 -0.0148953 0.033299886 0.01633866 0.00057922566
perhaps -0.0016861283 -0.036747783 -0.03905042 -0.08505729 0.021750055 -0.02089016 -0.049492516 0.03993823 0.0151092755 -0.032949183 0.007960562 -0.034430113 0.054622613 0.04884128 0.0045130113 -0.0074976804
sex 0.056678988 0.030017838 0.038673095 -0.04872227 0.017741898 0.0005053804 0.010471791 0.051832564 -0.015252726 -0.0114767775 -0.022390548 -0.009672118 -0.013216329 0.00037057785 -0.019447286 0.007532196
mean 0.069900066 -0.05416595 -0.023067046 -0.0048805354 -0.06965808 -0.028597182 -0.036107436 -0.01667617 0.01318676 0.012661797 -0.040812135 -0.019686794 -0.014391087 0.0023812095 0.03298738 -0.043482345
came -0.040768426 -0.013335875 -0.02376031 -0.070102364 -0.008961932 -0.008347941 0.032758504 -0.041232787 0.02195815 -0.045509387 0.0068382868 -0.0037191631 0.050094634 0.035193045 0.035555556 0.015243181
recommend -0.061347138 0.043822072 -0.00280968 0.06744166 0.027143434 0.03392676 0.026340246 0.015247389 -0.069104284 0.04121148 -0.074432254 -0.10724976 0.033888143 -0.004680893 0.026350806 0.094060086
let 0.02251751 0.0112325465 0.006971227 0.0026813669 -0.05043302 -0.04291839 -0.017822031 -0.052445583 0.06904878 0.018202988 0.009105226 -0.018896399 0.03370442 -0.03769413 -0.014075971 0.029932557
moments -0.027317138 0.06115113 -0.09000818 0.05808299 0.022975342 0.02960596 0.068194285 -0.014483483 0.024812222 0.04241127 -0.014109361 -0.058406647 -0.065840885 -0.042570308 -0.008881579 0.07034793
wonderful -0.1534569 0.091656946 -0.036418058 0.07866981 0.08226402 0.012555202 0.058754243 -0.09338129 -0.09342893 0.009152354 -0.03947509 -0.14442477 -0.00021365166 -0.1249413 0.1308602 0.076557785
episode -0.024279824 0.08569504 -0.07757593 -0.0024279922 0.016755095 -0.01579239 0.028552135 -0.058944352 -0.08748313 0.09217334 -0.013675011 -0.10775029 -0.05042376 -0.020208588 -0.00586562 0.09508199
understand -0.056965362 0.025278183 -0.028898612 -0.0221146 0.039373923 0.030322546 0.03306275 0.034686055 -0.023793867 -0.057155672 -0.065733455 0.042638686 0.036141858 -0.03418773 -0.0033928188 -0.008310412
small -1.5999442e-05 0.02226411 0.05653384 -0.0544208 0.02721429 -0.018982468 0.0149497455 0.045729477 0.034864962 -0.09523232 0.0013888065 -0.017649101 0.059392057 -0.024350766 0.005061702 -0.043358166
face -0.015092239 -0.022996487 0.022926865 -0.020161333 -0.0018994648 -0.050551016 0.01097674 0.007196814 -0.024429725 0.005620744 0.046056483 -0.05342935 0.011379143 -0.022617906 -0.01980001 -0.042643275
terrible 0.10483949 -0.09098426 0.09801144 -0.08573943 -0.07039419 -0.13311897 -0.13139921 0.13057151 0.06677173 -0.09109523 0.09643028 0.11408588 0.11630413 0.09593453 -0.13234277 -0.06906143
playing -0.032308213 -0.07893695 0.007982876 -0.058327943 -0.06915498 -0.06563212 -0.06093531 -0.01622578 0.0007817718 -0.0486317 0.03927986 0.048777033 0.044166826 0.060516443 -0.012017973 -0.041579895
school 0.035411313 -0.05596438 0.056036793 -0.076053716 -0.028450575 -0.11365038 -0.0078050504 0.09802025 0.07964266 -0.038318973 0.050796364 0.03238259 -0.010148964 0.026165344 -0.10900371 -0.041237045
getting 0.039687444 0.012690916 -0.025438497 -0.042431936 0.049777567 -0.0069661373 -0.040007703 0.01791604 -0.023869878 -0.02179504 0.07350989 -0.0048835794 0.024488958 0.010406995 0.029734457 -0.01275325
written 0.03781428 0.0033418415 -0.0023472302 -0.020652099 0.05255257 0.0145631675 -0.023705142 -0.02801632 0.03553462 0.056932893 0.046886623 -0.012155069 0.046095066 -0.015731435 0.0024084288 -0.02987516
doing 0.053543795 -0.023281902 0.06568124 -0.032953233 -0.03716518 0.015554689 -0.038925275 0.07904831 0.004039676 0.028704975 -0.006523785 0.07808243 0.0438605 0.108250044 -0.08047479 -0.048516218
often -0.011365009 -0.08309473 -0.012238594 -0.010510765 0.05223647 -0.0058584786 0.016581398 0.0715173 -0.042037845 0.0082557 0.013507057 -0.054973286 -0.016530935 0.04550799 -0.02039941 0.038083833
keep 0.013032159 -0.111211725 -0.027590424 0.06143889 -0.010514745 0.009976878 -0.043889254 0.006511582 0.029254792 0.027760945 0.0180676 0.018055687 -0.083060764 -0.012149553 -0.03698455 -0.017858252
early -0.006307286 -0.027032562 0.02830088 -0.03698861 -0.050648477 0.00027674166 0.046936154 0.036348112 0.045526344 -0.004300001 -0.024714533 0.013605199 0.0339237 -0.010101142 -0.02916244 -0.019115709
name 0.055611692 0.0012536369 0.052926347 0.021295993 -0.027696265 -0.010067401 -0.018230418 -0.019143455 0.0027824808 -0.049109288 0.021140397 -0.034660112 -0.025839277 0.0117747 0.004481898 -0.04240339
perfect -0.062846415 0.043724984 -0.07503976 0.08934776 0.1234822 0.10703221 0.07807709 -0.10999631 -0.14398879 0.016426545 -0.12362497 -0.1218255 -0.082420625 -0.091940045 0.13084362 0.13110255
style -0.006726058 0.014538021 -0.0009837699 0.060968664 0.03980821 -0.045390327 0.06206116 -0.046346758 -0.06307923 -0.07459776 -0.063539684 -0.0013216254 0.028692514 -0.06362432 0.010629391 -0.040471572
human -0.031151708 0.02260816 0.013958545 0.0020306087 -0.06458029 0.054476164 0.02796998 -0.005186727 -0.061802257 0.06833722 -0.030031675 -0.024933117 -0.049502824 -0.08908113 0.05221986 -0.005905892
definitely -0.04720753 0.1007636 -0.112732224 0.04772024 0.034464218 0.00063966523 0.0015381349 -0.031262055 -0.0835448 0.097787924 -0.042901732 0.11259367 -0.0065904683 -0.13981202 0.040881418 0.14299873
gives -0.05962139 0.019685358 0.054062203 -0.017837971 -0.0350088 -0.012238382 0.065515384 -0.050438676 -0.024209565 -0.003925122 -0.057958324 -0.0079444 0.041147564 -0.051994894 -0.012146991 0.010040766
others 0.0023526922 0.06675533 0.005726627 -0.009546224 -0.0011360577 0.026573393 0.0087801805 0.013404044 -0.015434559 0.030421348 -0.036908012 -0.08212805 -0.017549545 -0.00053707004 0.03749666 0.07176831
itself 0.0059937406 -0.109484635 0.117102884 -0.057327967 0.014104235 -0.058232643 -0.020385133 0.047791936 0.047271077 -0.0557462 0.14406061 -0.015971001 0.027750107 0.07366316 0.013922848 -0.05744527
lines 0.046586268 -0.07730978 0.038666636 -0.033616032 -0.012172718 -5.6333913e-05 0.049112592 0.038339976 0.044351973 -0.086598076 0.06081511 -0.033430576 0.046061486 0.013429599 -0.06459887 -0.044793356
live -0.085732386 -0.051283285 -0.039526474 0.019370021 0.07144829 0.061230965 0.025627505 -0.07211858 -0.041819356 -0.085790254 0.002244209 -0.04711479 -0.0015370958 -0.0055101537 0.04536287 0.057568144
become -0.04761154 0.03975156 -0.07348069 -0.027321305 0.06030737 0.052983593 0.047305483 0.0077562993 -0.034985162 -0.009357393 -0.0804134 0.0011347806 0.06297292 -0.04561826 0.037805963 0.019280536
dialogue 0.069937214 -0.03798607 0.09768945 -0.08345135 -0.10174512 0.026626123 -0.013427446 0.023288418 0.07976568 0.01478443 0.054560613 0.066963255 0.07501158 0.04051233 -0.029409949 -0.058498923
person -0.01937228 -0.0072134635 -0.009804705 0.016927918 -0.017794346 0.059598133 0.03358606 -0.006097423 -0.028040953 -0.06678478 -0.0352445 0.04125631 0.00030319596 -0.025833787 -0.023444336 -0.027047103
lost 0.052476734 -0.056605607 0.06211713 -0.03688446 -0.025225258 -0.034930248 0.012918722 0.006323609 0.007371279 0.003146122 0.0750902 -0.07627493 -0.0077087404 -0.019076193 0.005837133 -0.08285427
finally -0.004265478 -0.026199868 0.019157346 0.03849692 -0.03620352 -0.036185976 -0.02675197 0.005222762 0.06024103 0.032110613 0.088262856 -0.04987566 0.020819787 0.013327646 -0.021872275 -0.020070983
piece 0.006552363 -0.11299689 0.08383409 0.0077314973 -0.02116508 0.039439347 -0.0699519 -0.018220192 0.08287643 -0.10613788 0.0605218 0.04361201 0.008420125 0.053525355 -0.07787078 0.020148877
head 0.027524551 -0.061677217 0.02221645 -0.028963646 -2.4077512e-05 -0.02870169 -0.09226008 0.003299303 0.07534529 0.033085037 0.08527703 -0.026076362 -0.029184243 -0.00089189707 -0.06048713 -0.0794309
case -0.005125497 0.06996121 0.016727675 -0.04845556 0.024106039 -0.0046065287 -0.02511199 -0.027579868 0.04158463 0.10934306 -0.029629225 -0.031132886 -0.04130395 -0.009028657 0.060400672 0.05239683
felt -0.010173067 0.0084877955 0.04915094 -0.01613954 -0.044902485 0.034970507 -0.02503115 0.030424837 -0.017884552 0.03170739 -0.020860638 -0.016113393 0.041762114 0.029736778 0.0035016926 0.03335573
yes -0.046819787 0.025197227 -0.07368451 0.018787803 0.011828471 -0.00031044826 0.054688703 0.0039921245 -0.033741888 0.049305126 -0.043318618 -0.09027171 0.00019007776 0.003928136 -0.036189996 0.0163732
liked -0.101184055 -0.020678723 -0.08171183 0.08107416 0.06316416 0.08887812 0.10135237 -0.009715101 -0.043204136 0.06535723 -0.02723283 -0.047504075 -0.06714261 -0.08741271 0.051317148 0.108575106
supposed 0.04241042 -0.09264498 0.06594699 -0.092353985 -0.14087972 -0.008959853 -0.010889832 0.06625599 0.097905815 -0.020460637 0.014614985 0.025959231 0.09280771 0.11558995 -0.0942337 -0.023657996
title 0.059366964 0.0436822 0.022632563 -0.0065602455 0.009761796 0.031149527 -0.048485335 -0.019072933 0.030630311 0.052518334 -0.023899224 -0.048920017 -0.021501442 0.043145414 -0.042105123 0.016810939
couldn't 0.03787799 -0.028890813 0.07817297 -0.01665705 0.02375524 0.017744109 -0.0025217028 0.07434056 0.02392664 -0.022525765 0.056947317 0.07889094 0.04343892 0.013658892 -0.09498522 -0.067009576
absolutely -0.017794289 0.07902402 0.1359607 0.01002906 -0.0905469 -0.039388347 -0.08056601 -0.03441586 0.02795798 0.04141519 0.03384574 0.0067031453 0.005412164 0.07163498 -0.0054331077 0.030270668
white -0.07215087 -0.015194877 -0.023676742 -0.03864372 0.05220506 0.06028205 0.047984377 -0.037518334 -0.054938048 0.08748119 -0.03791935 -0.03464596 0.009734546 -0.06054189 0.008046029 0.024677837
against -0.08631582 0.065292984 0.030786643 0.07160252 0.034979556 0.029511489 0.00013337805 -0.008166029 -0.005778259 -0.053126544 -0.034300163 0.013738075 0.013866834 -0.044515528 0.029040745 0.07799145
boy 0.04478059 0.0062323855 -0.011532698 0.004497923 -0.022708377 -0.033632826 0.034326956 -0.0013582164 0.04880925 0.01947754 -0.011340723 -0.0018609578 -0.023611782 0.0074667037 0.037287768 0.051849727
picture 0.02440844 -0.03526511 -6.187019e-05 -0.061223157 -0.030817917 -0.04289618 0.023256417 -0.026896764 -0.031595185 -0.09473478 -0.028594231 -0.045089785 -0.025414633 -0.03297932 0.040726777 -0.057672825
sort -0.0138051715 -0.0020621247 0.0109749045 0.03756845 0.017436499 -0.044068135 -0.00772572 0.017636085 0.015048996 0.03832828 -0.0569469 0.112451375 0.029449334 -0.0312428 -0.034175463 -0.06291392
worse 0.105835676 -0.0230333 0.0521001 -0.13813902 -0.06328199 -0.050889593 -0.08586531 0.08940143 0.10019151 -0.07036082 0.097735986 -0.030547887 0.05201943 0.06696049 -0.14006236 -0.073907584
certainly -0.015802762 0.05410925 0.003909717 -0.010022734 0.016797852 0.021277364 -0.008373638 0.011201406 -0.036979858 0.025613017 0.026283389 -0.079752676 0.03274837 -0.042157065 -0.028275771 -0.03311268
went 0.020203885 -0.06917253 0.013135715 -0.0015762975 -0.018780865 -0.00826026 -0.031263206 0.048554428 0.0032645832 -0.040040858 0.04523564 -0.06681683 -0.028030071 -0.010662456 -0.009333634 -0.038439177
entire -0.02524286 -0.041677933 0.0067488854 0.03343439 0.01843834 -0.091211475 0.0032068412 0.029133122 0.049974598 0.028806238 -0.010950063 0.02475943 -0.009251979 0.04913952 -0.008684321 -0.015527468
waste 0.13704044 -0.18568447 0.15839238 -0.08288681 -0.13324344 -0.11462662 -0.15184917 0.16880746 0.14168388 -0.10352988 0.17695221 0.07046406 0.084302984 0.13468468 -0.17231289 -0.22832637
cinema -0.09586019 0.043391902 -0.088506885 0.0049350844 -0.015619348 -0.04586283 0.028363569 -0.0015446341 -0.06542448 0.079936914 -0.0018815015 0.03381152 -0.058529016 0.039264865 0.04641655 0.06755744
problem 0.021400552 -0.022808468 0.05637532 -0.1318459 -0.05928405 0.0059368154 -0.033155087 0.029163029 0.07955124 0.002216188 0.061338946 -0.009663336 0.046212737 0.06920324 -0.062949315 -0.034521457
hope -0.04521941 0.0033603054 -0.017981408 -0.05334869 0.017597686 0.033191603 0.083630994 0.013100236 0.0022322068 0.016683701 0.010281914 -0.042512145 -0.007845068 -0.018812293 0.060984958 0.042436007
entertaining -0.14665653 -0.012571083 -0.123346165 0.052027583 0.10840537 0.11633512 0.12806463 -0.05269207 -0.06666151 -0.101535186 -0.04831799 -0.06505257 -0.12914515 -0.07211864 0.1606626 0.16136575
she's 0.05163725 -0.048096467 -0.010966155 -0.07835629 0.0086194305 0.09326394 0.031558402 -0.0485947 -0.009029908 -0.014664919 0.032468934 0.034001842 0.03357762 -0.026897617 -0.022767268 -0.025108552
mr 0.03366465 -0.0001647763 -0.02025877 0.014185437 0.042127628 0.022420645 -0.021228822 0.02082731 -0.016807668 0.053832807 0.0014676653 0.05972933 -0.009487983 0.030600881 -0.049236458 -0.027537962
overall 0.05124853 0.011706438 0.02474929 -0.040663376 -0.031754315 -0.04435415 0.019804904 -0.07609353 -0.03240944 -0.004832058 -0.02747869 -0.032165658 0.016091937 -0.020675799 -0.03815114 0.04330499
evil -0.019606393 -0.018913569 -0.007431339 -0.017488629 -0.01663057 -0.0012568638 -0.019441148 0.072671026 0.07199009 -0.036599826 -0.021274436 0.057818413 0.04277948 0.0073079388 -0.012034349 0.010848005
called 0.018430844 0.0012223746 0.03971849 -0.029697023 0.0587155 -0.014494628 0.0086151855 0.022709105 -0.037891716 0.018873768 0.009777501 0.03147192 -0.009454143 -0.04321466 0.0042077983 -0.017987682
loved -0.1460042 0.06855917 -0.078413084 0.12416905 0.13866682 0.08756257 0.13278037 -0.050879512 -0.10045464 0.08473524 -0.15689522 0.037748285 -0.009870097 -0.080428466 0.07077276 0.048335943
based -0.054407552 0.028035924 -0.02403267 0.06559817 0.028914364 0.037404224 0.08399116 -0.08367121 -0.060404126 -0.041599847 -0.09846428 -0.028210858 -0.049462695 -0.08060142 0.067026734 -0.0008094185
oh 0.10035213 -0.03241115 0.09950638 -0.13066159 -0.057300214 -0.09120691 -0.060310476 0.093065694 0.13181038 0.010694965 0.08294732 0.0030186037 0.123751074 0.07752008 -0.077659555 -0.12710305
several -0.06157131 0.03675098 -0.035289403 0.08366531 0.04542756 0.060235318 0.05631222 -0.07936613 -0.0050799465 -0.010218145 0.00023152966 -0.029804511 -0.06408481 -0.041236594 -0.009737114 0.057155546
fans -0.07025358 0.0789306 -0.098059826 0.07978723 0.0038672695 0.015171205 0.057069287 -0.09938123 -0.036358155 -0.06574551 -0.030405771 -0.016078148 0.1018248 -0.057893645 0.017631652 0.076752365
mother 0.016937621 -0.012787766 -0.0030478656 0.020082735 -0.032485586 -0.055914108 -0.032065608 0.061029967 0.040994894 -0.005251961 -0.030770538 0.06673568 -0.014127624 -0.013422944 -0.07492142 0.0038799662
drama -0.048509754 0.031285338 -0.0882192 0.019449454 -0.037702587 -0.03136848 -0.00047331495 -0.0033807645 0.011369409 0.0608715 0.04189108 -0.004421645 -0.06070279 -0.035629768 -0.029362977 0.023315089
beginning 0.017840864 0.03776489 0.0131079 0.034440514 -0.005956381 -0.034014072 0.040410977 -0.04020755 -0.02439655 0.018293057 -0.012475637 -0.044115853 0.0073244357 -0.06429828 -0.0051073106 0.0876223
killer 0.031761162 0.0059128697 0.014695921 0.038947307 0.011446133 0.0022274232 -0.044834405 0.035012662 0.044233803 -0.015065148 0.07704375 -0.036170058 -0.059181623 0.0034374886 -0.021746695 -0.04811414
lives -0.06509797 0.0520427 0.0235762 0.005230979 0.007200267 -0.0064389757 0.051177464 -0.06910322 -0.082764655 -0.027123658 -0.039953843 -0.09106966 0.026904603 -0.03198378 -0.0044651446 0.021547109
5 0.012863724 -0.026538264 -0.05288437 0.016214842 0.008762706 0.024005303 0.0012411043 0.049932633 -0.034505658 -0.12424552 0.03217624 -0.0342545 0.025804287 0.08325125 0.020696254 -0.0038441252
direction 0.027150936 -0.05096385 0.016184215 -0.018662816 -0.07489724 0.039937083 0.036762528 0.0935908 -0.0052886535 -0.04187464 0.051037952 0.07456701 0.05883833 -0.015951287 -0.07885812 -0.012046164
care 0.069293365 -0.019361675 0.0138820335 -0.055473533 -0.011909727 0.017420962 -0.038188335 0.07232591 0.06576408 -0.07176734 -0.012688829 0.017845618 0.031862393 -0.009121214 -0.10301218 -0.06110548
already 0.041706357 0.014019122 -0.040532798 0.048038803 -0.048672516 -0.015995538 -0.009364058 -0.04520203 -0.034917716 -0.0034364876 -0.031907357 0.042874653 -0.019870317 0.013805963 0.019556258 -0.019237375
becomes -0.04265084 0.071414545 -0.063864924 -0.008466834 -0.058494065 0.031896584 0.0288415 0.05906128 -0.056347698 0.013071104 -0.009161552 -0.027852682 0.0039772596 0.03431891 -0.025105692 -0.059152238
laugh 0.007912162 0.051622223 -0.03466857 -0.027450994 0.050391205 0.0516544 -0.0044783982 0.03447907 -0.0076336553 0.04046231 -0.0153839 -0.0015841447 0.03753045 -0.08528012 0.020784138 -0.014114447
example 0.047309905 -0.0330597 0.0048771654 0.02695475 -0.0001816322 -0.06861298 -0.08156 0.005336455 0.054178804 -0.016502481 0.036018405 0.09028589 0.051901132 0.02035796 0.0064108125 -0.039507337
friend 0.0045590913 -0.041029077 0.049305372 -0.04595196 -0.038687486 -0.035526574 -0.083918124 0.069116585 0.004834791 0.053098265 0.015050596 -0.07175937 0.025843263 0.04425658 -0.042196624 -0.100227915
dark -0.03246461 0.042980373 -0.059658274 0.09039993 0.034897327 -0.008771479 0.012438404 -0.015338858 -0.015159274 -0.06781901 -0.075116076 0.039219685 0.046982728 -0.056510985 0.08966033 0.08381232
despite -0.05092278 -0.04578018 0.005454563 -0.024336994 0.009554401 0.012481029 0.033058807 0.031208264 -0.020018784 -0.005168061 0.004362489 0.0066394582 0.041733835 0.04987607 -0.04927557 -0.022856493
under 0.017850848 0.029724456 -0.04211661 -0.040270105 0.030635513 -0.019944845 -0.020971937 -0.003449589 -0.044997163 -0.014487763 0.050046 -0.042704374 -0.023587905 0.021903675 0.0112957135 -0.0027854834
seemed 0.07215912 0.013959539 0.021103963 0.0053316513 -0.03679649 -0.039299127 -0.079367734 0.06450036 0.06844207 -0.04249682 0.025603807 0.020732626 -0.03000665 0.0025689201 -0.058364544 -0.014500363
throughout 0.00013941606 0.1118318 -0.016637238 -0.0027094942 0.0663277 0.063973784 0.050477717 -0.09766797 -0.03710132 0.021734511 0.019599702 0.054261252 -0.06042943 -0.030219058 0.04006627 0.011082435
4 0.070606336 -0.05524826 0.100175336 -0.09783045 -0.03194516 -0.008043547 -0.050465915 0.0734067 0.052357495 -0.07209309 0.07435734 0.008435478 0.09309597 0.024036314 -0.076543584 -0.05944847
turn 0.02774451 0.0046648392 0.025795724 -0.013667231 -0.040904712 -0.03797342 -0.045315128 -0.010670295 0.108974226 0.045984663 0.0037378282 0.023331659 0.08804704 0.04445796 -0.05753031 -0.07294855
unfortunately 0.08395499 -0.077401005 0.11210929 -0.09220228 -0.11430129 -0.111943066 -0.045989014 0.07187025 0.06405317 -0.09593394 0.028983464 0.024811024 0.02028831 0.02946029 -0.145512 -0.11462888
wanted -0.0026105423 -0.060510617 0.026329791 0.030756513 0.038128734 0.0066850698 0.041901726 0.0070420783 0.029193694 -0.023320809 -0.00520241 -0.01728448 -0.009969983 -0.003863278 -0.038682137 -0.030258402
i'd 0.02373722 0.022227656 -0.013482066 -0.043059498 0.033539593 0.03754875 0.054396156 0.035850808 -0.010161765 -0.010415883 0.008147412 -0.11340509 -0.040819705 -0.017835967 -0.00994448 -0.030913474
 0.03633968 0.048871275 -0.034998365 -0.036324523 0.007425883 0.027955292 -0.07319879 -0.053311292 -0.014182224 -0.06136787 0.03244124 0.0013325153 0.021369938 -0.00027082875 0.03747953 0.051202334
children -0.03815562 -0.055487446 0.014450637 -0.010250866 -0.016851109 0.055204805 -0.020277925 0.038653836 0.048533577 -0.006734821 0.023610845 0.025071818 0.008450755 0.028871957 0.037323877 -0.036940835
final 0.0031707687 0.033594355 -0.0563242 0.08482567 0.020553129 0.04109693 0.0034537937 0.0034618652 -0.024175784 -0.06845844 -0.028145572 -0.014280289 -0.010539181 -0.0014770137 -0.011597984 -0.0360258
fine -0.011981625 -0.047736175 -0.021265728 -0.0432054 0.0030627686 -0.042971846 0.043758385 -0.044707466 -0.07650328 0.02429382 -0.02006206 0.08108027 -0.024114667 0.046951845 0.09009473 0.070019834
history -0.060409237 0.052633487 0.058446802 -0.0072994633 -0.005181544 -0.044541664 -0.022052322 0.002929196 -0.053331044 0.011291753 -0.036759224 -0.08785877 0.0002814696 -0.06574528 0.08907719 -0.008542563
amazing -0.1074757 -0.06302495 -0.08459938 0.0762956 0.12582666 0.12832162 0.11582143 -0.04430061 -0.013247516 0.00945631 -0.09318634 0.08961982 -0.09260831 -0.07664847 0.13260676 0.14161289
sound 0.00023641117 0.042149164 -0.024944432 0.020637147 0.05489708 0.0460621 0.0531696 0.03505429 0.022411145 0.053100895 -0.029779822 0.022670394 -0.009148503 -0.019423408 0.00326649 -0.013083969
guess 0.0920338 -0.11093044 0.098203644 -0.03987591 -0.08230025 -0.06435303 -0.099848755 0.064545095 0.078254715 -0.005229453 0.069720365 0.07390448 0.07798545 0.023035238 -0.018487891 -0.120194875
heart -0.06603822 0.05585783 -0.109722026 -0.01891336 0.09961968 0.03629428 0.031939812 -0.067837745 -0.09593639 0.065603755 -0.106496565 -0.083131514 -0.064481445 -0.015056692 0.04086884 0.0740835
totally -0.036326595 -0.03015543 0.026290946 -0.0073632877 0.013168567 0.06758505 0.010657618 -0.029092692 0.03903476 0.09318818 0.019274615 -0.057772733 -0.061638445 -0.019365571 -0.029288111 -0.008347204
lead -0.025609668 0.057868447 -0.0037805797 -0.04381642 -0.02373184 0.027980207 0.074257664 0.0142866755 0.029959682 0.009677532 0.032825805 -0.03930511 0.026681896 -0.04791108 0.0019104324 -0.027268715
humor -0.0665704 0.04732085 -0.0398264 0.025097076 0.031201335 0.01148856 -0.02880328 -0.043620024 -0.067712165 0.04691047 -0.0587336 0.033404384 0.057873644 0.010887399 0.05420141 0.018949507
writing 0.054346222 0.022990195 -0.028090306 0.05192889 0.0046072965 -0.04654685 -0.032472346 -0.059667237 0.037121702 -0.06308528 -0.033522345 0.024604563 -0.046979524 0.04893811 -0.086145245 -0.014259525
michael -0.015307212 0.044201262 -0.030939577 0.0054465444 0.031457737 -0.037665382 -0.044967394 0.0031579211 -0.020369537 0.06521029 0.02950242 -0.01233993 0.07507446 0.010521867 0.0025452143 0.0038283223
quality -0.04737684 0.0066527426 -0.017152255 0.08904764 0.03999639 0.047179665 -0.0062011387 -0.044722304 -0.027555712 0.043545708 -0.03974009 0.010668372 -0.021365535 0.005416754 0.068724565 0.04357699
you'll -0.020401012 0.034614827 -0.10916847 0.06410182 0.043746598 -0.022298979 0.025017995 -0.0037873567 -0.011722406 0.016463937 -0.041337658 -0.014665795 -0.02264104 -0.0027059496 -0.02223151 -0.004184351
close 0.008455669 -0.00037864747 0.005438364 0.04611109 0.0060522845 0.053663697 0.046721645 -0.082710154 -0.066422366 -0.019645447 -0.013884606 -0.00742483 -0.03433311 -0.05277966 0.012313397 0.035248302
son -0.0072420333 0.0077219442 -0.035983916 0.0075404686 0.011786779 0.041547 -0.0033740299 0.032941375 -0.01823807 -0.002099466 0.015235889 -0.041044597 0.02022424 0.0078032506 0.05272834 0.048109714
guys 0.03335578 0.04072615 -0.0074895862 0.009388766 0.04072929 0.0657482 0.0065019885 -0.05385014 -0.027838698 0.027704211 -0.06028989 -0.026969036 -0.012268406 -0.020399222 -0.051253293 0.031762183
wants 0.02606167 -0.08186047 0.06653705 -0.073360406 -0.02304698 -0.024874482 -0.07382065 0.0015932828 0.023942083 0.03852926 0.10837197 -0.054373275 0.08645503 0.035737872 0.0017792886 -0.032265767
works -0.047693875 0.008482533 -0.065220736 -0.024147738 0.06813522 0.0024492925 0.09317219 -0.045694087 -0.071515836 0.058817763 -0.032446068 -0.061364617 -0.07025482 -0.06945318 0.034822274 0.06493924
behind 0.01995492 0.018181482 0.019346954 0.050896555 0.04354204 0.015654786 -0.021482633 -0.013895298 0.016670166 0.02150505 0.030871937 0.040943045 -0.02685172 0.053605776 0.020891497 0.010390889
tries 0.020331578 -0.10292081 0.049244076 -0.07871351 -0.024087554 -0.055235576 -0.12380697 0.06066929 0.12864122 -0.003939832 0.063187554 0.0185321 0.03155258 0.09102453 -0.03822839 -0.052299116
art -0.0058493842 0.034781057 -0.07351192 0.03668069 0.016433638 -0.014701514 0.03858839 0.041833732 -0.0023585607 -0.018405883 -0.006621111 -0.046010442 0.04367254 0.015848022 -0.031440224 0.06003087
